3263 100
de -0.19769815 0.047798455 0.5252664 -0.31093556 0.026367433 0.3723711 -0.1361522 0.7655833 0.48788998 -0.33758768 0.83447254 -0.7949973 -0.13243745 0.25748986 -0.9383652 0.30720216 0.634366 -0.171776 -0.3979436 -0.9282648 1.2550131 -0.24420218 -0.042291883 0.17439938 0.69155204 0.65529346 0.032244556 -0.14270146 -0.10521713 -0.6448434 -0.48231128 0.70734435 1.118943 -0.6033537 0.027902951 0.12623447 0.6831506 -1.1772677 -0.4762059 0.06465264 -1.1781704 0.28260657 -1.6503173 -0.28107747 0.099343576 -0.66734284 -1.2123005 0.5780543 -0.34394854 0.8527695 0.18359789 0.5510839 -0.9314318 0.13652188 0.21646564 -0.638571 -0.41030172 -0.67133933 -0.9320142 1.2704514 -1.2883269 0.084017806 -1.4704598 -0.16435452 -0.37086022 0.2134032 0.3778484 1.6894891 -0.38147295 1.0020475 0.39828223 1.0310801 -0.21154696 -0.5568867 0.11109022 -0.6915077 1.2019324 -0.8705037 -0.11010797 -0.24364033 -0.344197 0.16648108 1.2851344 -0.29817396 0.2804638 0.45489112 0.6418828 -0.6673244 -0.2439145 0.3900647 -1.0518199 0.0726628 0.47319877 -0.077491365 0.67493004 -0.1885675 -1.1404381 0.056187987 0.08022617 2.2686284
que -0.72773135 -0.38786417 0.6052994 1.0241854 0.04858018 -0.7582756 -0.37182423 0.44302604 -0.21008697 -0.6043177 -0.37599087 -0.84046346 0.6834243 1.7235816 0.32434618 0.69166225 0.71253157 0.111252286 0.09123697 -0.16462646 -0.24454007 0.21302545 0.5133815 -1.0305717 0.44554222 0.4420056 -0.71222794 0.15674931 0.51958066 0.3401664 0.4135337 -0.46044976 0.8207426 -1.0429604 0.70471287 0.9253607 0.27875116 0.64365274 0.14325736 0.24855189 0.5097513 -0.007906428 -1.5905582 -0.41224405 -0.49687964 0.3535571 0.8310854 -0.25181717 0.5509358 -0.5260952 -0.03798793 -0.8979861 0.45647746 0.68719155 -0.055262554 0.39986488 0.09532846 0.27481332 0.2799323 0.061641667 -0.016713895 -0.58019054 -0.8231605 -0.13506395 0.6324985 0.72442293 1.2932217 -0.7934892 0.47346914 1.0121454 -0.64510113 -0.17473035 0.73966813 0.56404155 0.7399818 0.11650093 -0.7431249 -1.0205709 0.044736873 0.23567596 -1.0665796 0.3567864 -0.22658354 -0.27174783 0.75817716 -0.81631917 0.1856234 -0.8776709 1.3594192 -0.22846824 -0.015160456 -0.07367763 0.16944987 -1.4268769 0.13000561 -0.52356946 0.80292624 -0.14191996 -0.34888452 0.5623364
a 0.9456879 0.10820169 0.0855067 -0.6107857 1.3672043 0.40755397 -0.88842756 0.54996836 -0.83739567 -0.09704861 0.39441946 0.3561962 1.0036741 0.0620077 0.22782485 -0.8447242 0.13345881 0.7756281 -1.1940082 -0.8858717 -0.1153848 -0.380955 0.17848365 -0.40342107 0.9358732 0.3316548 1.3586597 1.2018131 0.13407922 0.11988716 0.1475808 -0.9683834 -0.14851724 -0.20483829 -0.21148215 -0.4774018 0.6018088 -1.1339612 0.09493416 -0.009798857 0.24380995 0.23705806 -0.63675517 -0.4972655 -0.7504054 -0.51754224 -0.4511055 0.059309788 -0.4679626 -0.59876055 -0.24736439 -0.52090114 -1.3564813 0.045675434 -0.8514831 0.014260053 -0.5928506 -0.71216595 -1.2427757 -0.46367666 0.07478485 -0.08971668 1.3892739 0.4435009 -0.9291394 1.6436571 1.3093137 -0.789137 -1.0968127 -0.12783271 0.5539095 0.8014591 0.27327952 -0.49266863 -0.090428345 0.22062868 0.6065741 0.30056536 -0.7377848 0.84070235 -0.25407428 -0.43870202 -0.4513565 0.67878044 -1.5683943 0.32560593 -0.8157184 -0.8308067 0.9648008 -0.57120955 -0.361819 0.63045317 0.97989285 -1.3104233 -0.8676796 0.6506913 0.69446874 0.5612342 0.7288543 -1.2807038
o -0.6274379 1.0457067 -0.7290936 0.80419326 -0.34258768 -1.6688038 0.9384916 -0.6016193 0.3110281 -1.2565689 1.1983355 0.32055455 -0.10664239 -0.48648706 1.1251514 0.12835816 1.8796123 -0.7980427 -0.76135296 -0.75604546 -0.48693132 -0.26306242 -0.36089098 1.0401883 -0.17350242 -0.37738395 0.043527238 0.07388224 0.26523337 0.99910975 1.0879548 0.55036056 -0.9104163 -0.662222 -0.88825756 0.901922 0.2790597 -0.7122755 -0.77177095 0.2669578 0.46851537 -0.2910277 0.4734764 0.65224123 0.59858364 0.20966823 -0.30514124 0.68394 0.62852895 -0.24358965 -0.17330095 0.5567999 -1.2136365 -0.82645637 -0.9769669 1.7366694 0.7637133 -0.0074121593 1.6160343 0.56452656 0.15096657 0.9077083 1.1614025 1.0355225 0.106547914 -0.64857805 -0.029239103 0.37766775 -1.0740358 -1.4535829 1.1956297 0.0015438312 0.046907812 0.5642712 0.28885654 -0.0016892671 -0.06014159 0.63068354 0.16329901 -0.5283747 -0.03670011 0.11447359 1.1479541 1.4077835 0.09691218 0.6077599 0.3357832 -0.054741073 0.56317705 -0.71880347 -0.7403163 1.4898864 -0.701419 -0.20385884 0.84925115 -0.8298917 0.310211 -0.9632852 0.08955272 0.40706465
e -0.8290607 0.3829432 -0.61732894 -0.67841256 -0.8347754 0.42009103 -0.06558084 0.37875107 0.23506758 0.62861365 -0.2129578 0.49451673 -1.1732017 -0.16601032 -0.24499588 -0.13650972 0.37938347 -0.47619593 0.097053654 -0.77265143 -0.46465898 -0.16449957 0.7752344 0.31887966 -0.38717037 -0.48105073 -0.051271543 -0.28955173 -0.04768107 -0.21464215 0.5918095 -0.15186755 0.23376192 -0.45959866 0.60236335 -0.09223836 0.060880125 -0.40539935 -0.1918337 -0.34060445 -0.18743962 -0.40147123 -1.1923295 0.20536359 0.17539221 0.016192472 -0.5258935 1.2946714 -0.10282057 0.26618138 -0.097361684 0.2922379 0.19373226 -0.022997968 -0.7762565 -1.4148083 -0.37000722 -0.024020126 0.23845953 -0.7012659 0.41838735 -0.5798568 0.9437781 0.17148302 -0.33040744 0.091504745 0.5710956 0.7027496 -0.23797275 0.62837166 -0.531104 0.24281764 0.09499292 0.21044461 -0.27959463 0.4222606 0.3058311 -0.01334014 -0.09724724 -0.32258108 -0.63028574 0.013690061 0.8653451 0.28945813 -0.29948786 -0.5525154 0.8790874 0.08984248 -0.7785345 0.13267456 0.28011385 -0.24934363 0.038835406 -0.08069913 0.26289847 -0.41848025 0.4293135 0.025997074 0.13745151 1.3360182
harry -0.7410883 0.97383666 -0.3044239 -0.5466489 -0.9026128 -0.73470044 0.30567217 0.38821995 -0.25302446 -1.1621177 0.58639646 -0.70731205 0.48197544 0.19301844 0.086293876 -1.1907605 -0.36489776 -0.43473774 0.08026992 -1.0946324 -0.5033617 -0.3549894 0.098179586 0.7359956 -0.738448 -0.4661267 0.82325983 -0.10617906 -0.40941587 0.029280467 1.0737383 -1.4363054 0.15847982 -0.9944506 0.60251206 0.30535492 0.93000317 0.16251524 0.28948256 -0.08832742 -0.22083516 -0.73613584 -0.4783202 -0.6459771 -0.6149523 -0.35170794 0.10583438 1.0088094 -0.48404464 0.055244096 0.4690208 -0.0011395587 1.4690679 0.6481796 -0.7438341 1.1431565 1.171602 -0.60965866 -0.11828257 -0.756572 1.0224869 -0.24474308 1.5835212 -1.1741831 -0.14080335 0.5219261 -0.24566767 -0.22995265 0.25349724 -0.24614036 0.073925406 -0.7632482 1.1461434 0.9314676 0.74534947 0.8162192 -1.0214771 -0.42915377 -0.37670964 0.025352068 -0.4387623 -0.21396454 0.4346325 -0.53966236 -0.78458077 0.03505272 0.24051556 0.62007505 -1.2525574 0.2840316 0.574424 0.6848963 0.18200666 0.17857383 -0.21057741 0.508441 0.49106148 0.31115302 0.8172072 -0.81586176
se 0.48275518 -0.018499142 0.085011445 0.4773627 -0.1637155 -0.7076406 1.007153 0.23917346 -0.062972784 -1.4465055 0.70676255 -0.40116066 0.51738554 1.3574057 0.48134786 -0.05913684 0.27725762 0.26589614 0.7247134 -0.85478085 -0.33113605 -0.33817887 1.4581411 -0.4712203 -0.06308887 -0.06703068 0.47337005 0.21834873 -0.3304939 -0.3634919 1.0804738 -0.5366157 0.62431294 -0.061053786 -0.7696429 0.48357993 0.2822123 0.17980418 -0.6053483 0.040288478 -0.24865493 -1.2497811 0.5131593 -0.36129007 0.09143302 0.35206252 -0.827819 -0.2943133 -0.05411764 -0.83779734 0.37375328 -0.13213901 0.5601222 0.3995184 -0.9388705 -0.6929887 0.36515445 -1.3081305 0.1611561 -0.07090884 -0.0017875729 0.35826018 1.379062 -0.35217577 -1.1141882 0.57785916 -0.31950456 -1.1709068 -0.2399146 -0.52773505 -0.5261801 -0.18050906 -0.0762069 1.2382028 0.22129194 0.092051424 0.29940355 0.18217434 -0.12023395 0.46378615 0.41926134 -0.31877849 -0.16826965 0.50484025 -0.588474 -0.678054 0.20247011 -0.07557124 0.15723726 0.61053044 0.0822578 -0.63712025 -0.28847042 -0.65879923 -0.49656126 0.19807175 1.6109117 -0.5904293 0.12655935 -1.0676163
não 0.2793686 -0.12558752 0.60864896 0.5405976 0.52461684 -1.0965935 0.14624876 0.32283854 -1.6196834 -0.45114213 -0.368009 -0.80540884 0.63663477 0.68250155 1.0509603 0.30868548 0.3230106 -0.200934 -0.29414237 0.4032812 0.58529764 0.066577055 -0.019266013 -0.5431694 -0.31517118 0.15342136 -0.49119106 1.2584258 -0.046737384 0.5934804 -0.24048886 -0.116649434 -0.027864298 -0.4208901 0.6112215 0.3350996 0.43878978 0.7262643 0.5726328 1.2350715 0.76317114 -0.20509733 -0.53699505 -0.06634843 0.7940383 -0.5663916 -0.09744112 -1.0725453 1.4962574 0.1283584 0.035104908 -0.91704625 1.7448561 -0.5551738 0.36187142 1.1021504 -0.61807203 0.04348246 -0.6442751 0.15529709 0.3232753 -0.93287504 -1.4760809 -0.37571216 0.023342779 1.3502722 0.72702354 0.21022852 0.4471772 0.7150957 -0.36161777 -0.019290013 1.630562 0.68797094 -0.4956418 -0.053462796 0.29617432 -0.8336952 0.6447411 -1.0654757 -1.022373 0.024420463 -1.5575622 0.4977089 0.076264456 -0.76953685 0.55229706 0.6731161 1.1032562 -0.7464923 0.54078805 -0.3018389 -0.1193832 -0.45845062 0.19846033 0.5145263 0.5481687 -0.09015844 0.37918794 -1.2791717
para -0.7146787 1.1454468 -0.3063401 0.46484932 0.8042434 0.6580948 0.9383918 0.061575223 -0.7555507 -0.25054345 0.7042733 0.016874135 -0.96324146 -0.025008019 0.91303885 0.45677927 -1.0583273 0.146074 -1.2504846 -0.9531762 0.16342041 1.2766517 1.3357472 0.2244618 0.88639593 0.7011864 0.644189 -1.4945512 -0.59321696 -1.0390817 1.3677181 -1.3290199 1.6914284 -0.66944385 0.35525995 -0.7030284 0.14953965 0.1804951 1.0405753 -1.0281504 -0.24538782 -0.13402107 0.08465936 -0.4870145 0.61630297 -0.5142988 0.43779773 0.11539909 -0.1483753 0.44760197 -0.017089633 -0.24972984 -0.27123362 -0.4182495 0.5272819 0.46507117 0.5507196 0.6721817 0.5043567 -0.0061615384 -0.05498909 -0.17151459 1.3789625 0.40402997 -0.54599816 0.29854044 0.29141745 0.640743 -0.3062336 1.0196141 -0.6289219 -0.37507015 1.0140357 -0.076479204 -0.4211621 -1.903833 -0.7016245 0.4096611 -0.20010237 -0.28640613 0.1319754 -0.8003715 0.5552961 0.0004577372 1.6324896 1.1804641 0.11152358 -1.0021404 -0.70354235 0.09763522 -0.47689605 0.15243994 0.6602439 0.06418387 0.0975332 0.7075164 1.0576185 -0.41142428 0.40956736 -0.44404927
um -0.9485983 -0.61109054 -1.0995839 0.17223045 -1.8458432 -1.3667316 0.07690526 0.63496584 -0.42681888 -0.6738802 0.36139274 -0.11035408 -0.75817287 -0.7090498 -0.26908123 1.1675037 1.3416867 -1.1798031 0.20048004 -1.676684 0.68034315 0.88797635 0.42377526 0.16991618 0.3315122 -0.6075282 -0.69672954 0.55008787 -0.34793168 1.0545366 1.5928153 1.194496 0.08938145 0.86388195 -0.876191 1.5316904 0.33135617 0.86544025 -0.8890632 0.33671683 0.92903364 0.33480346 -0.9143682 -0.1803959 -0.07634515 0.34758124 -1.3621994 0.5274103 1.5759548 1.0371954 -0.5487077 1.9958361 -1.3365283 -0.45019785 0.32891238 -1.1209096 0.21449159 -0.5182392 1.5833355 0.23869371 0.7367062 0.5197997 0.52249146 0.05766211 -1.1770437 -0.61047226 -1.4524164 0.36044338 -0.16241062 -1.1966429 0.8319033 1.043131 0.55942196 0.6913268 0.9304827 0.5331688 0.7731422 -0.455152 0.92363584 -0.05175692 0.6461983 0.116819195 0.89564306 2.0198443 0.36317545 -0.4370342 -1.2946969 -0.21225937 1.5107937 0.6843896 -0.96401924 0.6611577 0.7598132 1.1310574 1.4415969 -1.314433 -1.0877342 -0.31655487 0.6311809 1.1136714
uma 1.0615963 -0.23482299 1.2447664 -1.079019 -0.08249198 -0.1942277 -1.1413027 1.7000712 -0.57828504 0.17811105 0.6278306 -0.17609327 0.99401677 -0.66546035 -0.48284867 -0.33680207 -0.25466403 -0.39601806 -0.29730642 -1.8205516 -0.08629154 -0.04027695 0.43725064 -0.92066836 -0.4865476 0.3090344 0.3472156 1.0946118 1.1095681 -0.097434804 0.633587 0.49983013 0.8292431 1.0374657 1.3390629 0.7106582 0.79736054 -0.5699062 -1.0652709 -0.79895824 0.5337445 0.5291226 -1.881518 -1.5389935 -1.2581402 -0.73692524 -1.7365646 0.25083098 -0.25944272 -0.10700676 -1.3433765 0.52268404 -1.1221278 0.682761 0.42297372 -1.4554037 -1.2043346 -0.69813037 -0.7262377 -0.3571845 -0.062040538 0.37177205 0.09374167 -0.3177518 -0.93575376 1.6014699 0.15653871 -0.9252078 0.2315663 0.12360532 0.2340118 1.4939015 -0.3134172 0.28769138 0.1823825 0.6100611 1.2262719 -0.7399605 0.81011856 1.1423328 0.58187246 0.6160886 -0.042215623 1.2031423 -1.6282992 0.4403737 -0.76246303 -0.51272446 1.6628158 -0.49363217 0.92851835 0.71948785 0.40542534 -0.39890638 -0.82496685 -0.74249226 -0.091520876 -0.48939678 0.7924674 0.23470822
os 0.67815375 0.8316125 0.0613398 1.1189525 0.9474578 0.8903017 -0.31880116 2.1417835 0.9159809 -0.48446935 0.25597352 -0.61042064 -2.092123 0.5842721 -0.08268272 -1.3597611 -1.1069889 -0.9165096 -0.91790503 0.78637385 0.3230844 -1.3218063 0.08780634 -1.1219647 -0.6423668 -0.9125345 -0.27215117 0.68033844 -0.5401329 -0.19508196 -0.44667158 -1.3405166 0.10006583 0.0015806928 -0.5915677 0.07890925 0.08204675 -0.43424916 0.054379877 -0.03473617 -0.4585421 -0.345183 -0.44605395 0.5118844 0.79741627 -0.3197612 2.5202818 0.31237411 0.94278437 1.3378365 0.4931723 -0.55087674 1.7886525 1.0299867 -2.406287 -0.051657114 -0.14886585 1.272078 0.6710291 -0.7543709 0.47709975 -0.68497515 0.33607832 -1.1308578 -0.82122517 0.08126007 0.3300306 1.7511717 -1.3709897 0.7926774 -0.4308848 1.6729409 -0.6435251 0.5780796 -1.4789834 0.69570315 -0.30496472 1.9816058 -0.63087004 -0.13251929 0.83606744 -0.32282847 0.29414475 -0.3415045 0.37678748 0.15066709 0.1827245 -1.950747 1.3961322 0.5774389 0.9246135 -2.2267244 -1.7299534 0.95489585 0.43500978 0.540452 -0.6472796 -1.346925 -1.9826329 0.3060281
com -0.37925676 0.14183731 0.65936303 -0.4853579 0.61875975 0.21131273 -0.19190353 0.12976842 -0.14108771 -0.0010152067 -0.60432637 -0.86732787 -0.71182245 0.6685269 -0.26429018 -0.49556017 0.45251667 -0.0090056695 -0.37861428 -0.5216934 0.24208339 0.85813093 0.79410565 -0.12289564 0.67030996 0.85789704 0.1290325 0.5484836 0.27130392 0.33624518 -0.4425835 -1.3319478 0.63238215 -0.74277484 0.24341753 -0.80540764 -0.078117706 -0.59185094 0.8458745 -0.9891898 -1.3107717 1.1151639 -0.24298546 0.4486126 -0.48227876 -0.64753866 0.9081845 0.1488322 -0.17111821 0.29083422 1.2045655 0.54724026 0.16173463 -0.39208764 0.030543692 0.13231833 0.17321476 0.32541698 -0.2274431 -0.19311479 -0.5834108 -0.62100697 -0.4454808 0.5003151 0.108118795 0.3436729 1.4182504 0.10724654 -1.0781348 -0.3354686 0.21177985 0.45579234 -0.1474898 0.06291803 -0.05251081 0.5156841 1.3111469 -0.79859036 -1.1298852 -0.312856 -1.0640647 0.6213178 0.358182 0.23713483 -0.44080693 0.09667423 0.24634096 -0.4279441 -1.4674472 0.12750515 0.98837715 0.42295632 0.45704946 -0.13336076 0.6186356 0.41013345 0.14517428 1.3082811 0.8326885 0.122057945
do -1.3529152 0.88399535 -0.61584175 0.49630702 -1.2274568 -0.36802548 0.058057997 -0.9721798 -0.16623825 -0.8129114 -0.022246156 0.80747086 -1.2882915 -0.60439366 0.12274632 1.0885744 0.8533834 -0.82594705 -0.6160552 -1.3662994 0.4994803 0.9096581 0.35024697 1.1402415 0.84830254 0.82277644 -0.079378285 -1.3639979 -0.14877404 1.6192733 0.66016304 0.52767295 1.7123995 -0.9578131 -0.15899444 -0.2965851 -1.3808957 -0.5933484 -0.6044047 -0.76043093 -0.037619326 0.40391415 0.5522794 0.83166885 0.5108765 -1.0426298 -0.29166916 0.37878472 0.82910395 -0.029883508 -0.53617924 0.84171873 -1.6621139 -0.55840683 -0.2522222 1.7889771 0.94949985 -0.031012535 0.6918219 0.5370185 -0.04800271 0.9954498 1.0740511 1.0149753 0.3655171 -0.23498634 0.3691445 1.1513771 0.70292354 -0.4164891 0.7940926 0.391782 -0.58229446 0.34766456 0.6914062 -0.18048118 0.40693757 1.1226575 1.731942 -0.87062323 0.114544615 0.38150248 1.7031502 0.4769406 0.78326786 0.82631195 0.58773035 0.6801682 0.37173697 -0.12369134 0.2565399 1.8987683 -0.5831104 -0.30296305 -0.09995002 -1.0041007 0.17621054 -0.80637914 -0.48171186 2.0181205
em 0.69595736 1.5536114 0.54513645 -1.6427102 0.3992687 0.22235556 -0.43911463 1.6970261 0.9946881 -1.0196785 1.6219149 -0.9684154 -0.36339167 -1.4167663 -1.0680426 -0.5367928 0.7994811 -0.6207681 0.68281597 -0.7261647 0.4355728 0.4816859 1.096506 0.61027825 -1.2318506 -0.3465621 0.13717566 -0.54299283 1.5001197 -1.0816735 -0.8250591 -1.183758 0.6071537 -0.3848163 -0.50801075 -0.6685826 0.79311854 -0.8394056 -0.3574429 0.41078097 0.358403 -0.457379 0.6598316 0.11348358 0.99461687 0.2390075 -1.0471447 -0.4251344 0.4578249 0.9727286 -0.15917271 1.1181296 -0.14318186 -0.44840357 -0.008605852 -0.59210277 0.67837125 1.4014423 -1.1593574 0.66988164 -1.2128179 -0.40549982 0.16102006 0.651115 1.0525115 0.27356154 0.579336 0.13881019 -0.9636363 1.9729061 0.2934404 -1.3551822 0.16415028 -0.32202893 0.15546355 -1.6344278 1.8981043 0.1317663 -0.08075021 -0.050560538 -1.0015055 -0.5618229 -0.34805134 0.07664837 -0.52697015 0.3110772 0.6282124 0.6389669 -1.2861174 0.060431406 0.8317236 0.033547066 -0.015192698 1.1149623 -0.6478543 -1.5374265 -0.35700724 1.0269963 -0.37566254 0.5028978
ele -0.30835798 0.84602547 -0.3523964 0.93396777 -0.21151789 -1.0635374 -0.21389706 0.5172756 -0.4374059 -1.1366619 0.2144114 -0.39622912 0.81276804 0.15452741 0.5319318 -0.16470246 -0.3685113 -0.39972806 0.39244893 -0.376277 -0.1559377 -0.038858898 -0.18630686 0.7344043 -0.3877873 -0.49750742 0.085104235 0.7801492 -0.1945619 -0.37499717 0.8264008 -0.6003751 0.07322919 -0.24945411 -0.13345979 0.7995865 1.246119 0.18351425 -0.8183563 0.4976623 0.043082837 0.35286593 -1.0494742 -0.14790931 -0.3154555 -0.12646541 -0.22245698 0.035286885 -0.05080736 -0.8783196 0.38509127 0.05944749 -0.09274644 0.8421754 0.08649322 0.97514063 1.0455991 -0.6667515 -0.14400063 0.6040579 0.515822 0.027359482 1.072688 -0.19868623 0.5048413 0.068332456 -0.5855568 -0.04874365 -0.37962243 0.8274299 -0.14350048 -0.62301415 0.31834114 0.6090767 0.66689724 0.66990626 -0.42732576 -0.024536487 -0.38038582 0.04351435 -0.53583956 0.015276174 0.10618667 0.14588499 -0.94480544 -0.2991649 0.51318944 0.12285221 -0.00047663832 0.7311935 0.31266728 0.60462755 -0.064447574 0.5837127 -0.03722397 -0.38982067 0.13213135 -0.050624847 0.4389724 -0.20349035
da 0.59537446 -1.2571127 0.05260476 0.19188465 0.8473064 1.1674459 -0.60970366 0.79137295 -0.39370748 0.40603405 -0.24876688 0.04452735 -1.1350232 0.4666998 -0.7259458 1.0191869 -1.5859326 0.18735482 -1.1041853 -1.6121296 0.21061967 0.2316059 1.2048991 0.7142259 1.5404677 1.8421643 2.3135695 -0.29432026 -0.36500376 -0.51383233 1.4842272 -0.6020949 1.1456087 -0.41014397 1.2472894 -1.4876273 -0.2576697 -1.1881934 -1.2004862 -1.6657774 0.96058285 0.53873307 -1.2248251 -0.30421928 -0.1517973 -0.70533615 -0.46185055 0.5150257 -0.31201127 0.61018336 -0.3774065 -0.26941484 -0.39488167 0.52612597 0.34565875 -0.04873246 0.06375051 -0.75991106 -1.5720365 0.32909068 0.26856935 0.5190358 1.7529225 1.8291084 -1.0407377 1.1481458 0.8192459 0.43128133 1.0115855 0.78723186 1.727124 1.8450722 -0.28916198 -0.6974314 -0.31653848 -1.3453081 2.2726686 0.44912282 1.6259116 -0.10222464 -0.1302677 -1.3558607 -0.58180827 -0.3573945 -0.8131171 1.9675245 -0.5963997 -0.9989756 0.019378407 -0.38540447 0.17733847 1.3703518 1.5928737 -0.34504175 -1.1828097 1.5311887 -0.33202866 -1.2516791 -1.1517452 1.1085548
disse -0.09375193 -1.2427206 0.18258235 -1.0825014 1.6528718 -0.9892746 1.0129968 -0.2151182 -0.024916619 -0.06973073 -1.8621501 -0.23665926 0.61894107 -0.84542656 1.4292977 -0.69394785 -0.58141065 0.6845011 1.4047803 -0.46925485 1.3144362 0.0062935348 -1.8035744 -0.5504337 -0.9612731 0.5813651 0.05519278 -1.1208905 -0.7921533 0.2731689 0.6279909 0.35749617 -2.055345 -0.22051865 0.8780899 0.9907625 -0.7102542 0.6659384 -0.58972925 -1.1324475 0.710171 -0.18315913 0.1460965 0.60024905 1.4356519 0.09508729 -0.44265518 -0.7834139 -0.22528593 -0.5205738 1.035453 0.52380896 1.0084256 -1.6413374 0.6478747 -1.2788185 -0.67316425 0.7581407 -0.3557106 0.5216155 -0.613002 -0.88155705 -0.46448153 0.058703724 0.51028985 0.14088163 0.42703125 0.4833855 0.123351365 -0.65737766 -1.3938608 0.8266226 0.4915346 0.48589486 0.012670952 0.08443226 0.67730826 1.2027994 -0.08009505 0.26134294 -1.6278259 1.2988161 0.7831985 1.1579373 -0.49680775 -0.1039523 0.63312125 -0.038805865 1.0296618 -0.9541584 0.16369157 0.64555484 0.78379995 -0.59906816 1.9264055 1.4746574 -0.07999618 0.26886663 0.08666333 0.3431954
é 1.659566 -1.0588744 0.36434048 0.34938803 0.7732007 -1.5589042 0.80729437 -0.39300096 -0.46608812 -1.0087603 -0.7719032 -1.131159 0.26080164 1.1778111 0.79605186 0.42660746 -0.66641027 1.2404592 1.1289698 0.082994185 1.1274425 1.0541996 -0.9891355 -0.7606652 0.76972616 0.8295344 -0.97363585 0.55304277 0.57396275 0.11737463 1.2594398 1.2132494 -0.3958926 -1.6288552 -0.17969489 0.40312165 1.053798 -0.17396116 0.033886675 -1.9469815 -0.43643272 -0.43710542 0.9225955 1.2182297 0.97756064 0.8499733 0.056931283 -0.4449424 2.0817971 -0.54245526 0.37809768 0.24650815 0.7274343 -0.90304315 1.3441619 1.4357105 -0.33537433 0.86057144 -0.14683722 0.09445919 -0.8734628 1.2418327 0.07448217 0.72750896 0.37451094 0.7525809 1.4212552 -0.33155712 -1.1480156 -0.59816915 -0.95911026 -0.27144367 1.044294 -0.7299286 1.5793535 0.4807731 -0.48981294 0.4259552 -1.1866269 -0.46818218 -1.0687906 0.55114424 -0.092687756 0.709141 -0.0331948 0.41378874 -0.20157969 -0.102712005 -0.24656561 -0.15440544 1.5684037 1.3047688 0.47242135 1.739323 0.4546417 0.20351867 -0.055862565 0.4768044 -0.3900972 -0.9145238
no -0.027806481 1.8907928 -0.2091934 0.68456143 -0.6368504 1.2441508 0.81279194 -1.6152421 0.37531316 0.014641174 0.17410418 1.2559103 -0.30357966 -0.1024144 -0.34563312 0.71764153 2.7624302 -1.5081481 -0.3206726 -1.3865587 0.047656495 1.6409192 0.7302594 0.72127104 -1.1792821 -0.46781132 0.73322195 -1.0590146 0.20004277 1.465602 1.1296322 -1.5944346 0.57491094 -1.1852417 -0.91690415 0.7238376 -1.3407575 -0.8693851 -0.50122845 -0.23414339 0.7857358 1.1901999 1.1491618 1.256673 0.88382685 0.255815 -0.50452286 0.44649792 0.5650155 0.63981086 -1.2947036 0.19758797 -3.3380013 -1.1530979 -0.90806377 1.9912353 1.246056 0.7556289 1.2703273 1.0364845 0.3774645 -0.7643666 0.38484257 1.3387926 0.3941692 0.33628523 -0.122727126 -0.4413141 -0.30511776 -0.17544849 0.5469289 -0.46847934 -1.0807195 -0.39562792 0.15425253 -0.024311112 1.2304476 0.96878445 -0.39454547 0.40273672 -0.93992984 0.43908685 1.0780916 0.6239678 0.4291001 0.4971956 0.29943803 0.472927 -0.07147871 -0.17059045 1.0575633 1.1231083 -1.1176708 0.6310273 -1.2622004 -1.0148242 -0.26162377 0.17022952 0.49300486 1.8590004
rony -0.24642448 0.7207794 -0.32105875 0.29658777 0.22710653 -0.5055016 0.5705965 1.0049186 -0.23362967 0.22308941 0.63200617 -0.80008966 0.6323681 0.95501286 1.1120671 -0.67035896 -0.9346997 0.49826148 -1.2700843 -0.7951758 -1.6971873 0.98892194 0.5022193 0.7216089 -0.5074139 -0.62400603 0.1123857 -0.36998877 -1.3446122 -0.82458526 -0.13450117 -1.1662796 0.43159595 -0.27256995 -0.2937377 0.19404346 0.44839296 1.1871536 0.5127951 0.10070399 0.18812476 -0.62078685 -1.0928627 -0.10430368 0.7121685 -0.039424 0.66964084 -0.39067498 0.29282147 0.34520462 0.18643574 0.09884726 0.8529205 0.15914354 -0.35459742 0.62338275 1.1556371 -1.1341982 -0.8948171 -0.48643413 0.08467755 0.3393987 0.94001794 -1.0639712 -1.1232324 0.6279358 -0.35902986 -0.50757885 -0.16923328 -0.39383668 0.33398932 -0.33920264 -0.07288246 0.75173223 0.7808993 1.6112188 -0.34352523 -0.059540417 -1.1340184 0.14894584 -0.18898085 0.3522919 -0.28935823 -0.38147292 -1.1678151 0.48927388 0.38075668 0.8982217 -0.7272821 0.20854904 0.7286826 0.77255374 1.5511787 0.27980992 1.005155 0.29981577 1.0551252 0.54851687 -1.2625941 -0.78566265
na 1.493061 -0.93626314 0.6707249 -0.9628582 0.35903564 1.1176952 -0.37479523 1.0155274 0.27889174 0.65849864 1.4229687 -0.8078845 1.5101205 0.30365825 -0.99475145 -0.9743098 -0.7042519 0.28357676 -0.6411265 -0.78187233 -0.5443802 0.3945881 0.95166874 0.097739056 0.84918684 1.10947 1.2174914 0.6011732 0.35665107 -0.0155289415 1.6023948 -2.3180172 0.5205429 -0.9315599 0.88803446 -0.9133266 -0.51053506 -1.3625826 -0.20787477 -1.1550634 1.139907 -0.9516581 -0.034425195 -0.21912101 -0.22093813 -0.42480093 -0.7317718 0.081273675 -1.1418374 0.2511429 -0.94465613 0.2373725 -0.87440956 0.73251957 -0.222355 -1.087396 0.06884282 -0.64891773 -2.2146518 -0.683359 -0.43533638 0.23990239 0.8413453 2.134805 0.14384069 1.0797346 0.16816361 0.16520433 -0.048136704 0.8118942 1.0208093 1.8591591 -0.5065859 -1.0736729 -0.15503544 -0.57306004 1.1782333 -0.623884 0.6872385 1.1468943 -0.5630472 -2.0443711 -1.3889613 0.19059958 -1.125105 1.0510005 -0.54106253 -0.34021854 -1.2740769 -0.06098565 0.84965235 1.024186 1.7128717 -0.35581207 -2.0535371 0.59639305 -0.6411331 1.0106033 0.12244654 -0.6794564
você 0.3208009 0.3996126 -0.14894259 0.58041626 0.00312974 -2.2046854 0.84328955 0.119938366 -1.4418124 -0.69272506 -1.0929993 -1.3047884 1.3350047 0.7775875 1.9030797 -0.24865355 -1.1642556 0.8636451 1.3126808 0.4727318 0.46309677 0.53813016 -0.9878681 0.7714201 0.85463274 1.0556109 -0.8208221 1.1697992 -0.3063752 -0.002203358 -0.14209248 0.040129796 -1.0483743 -1.494176 0.67897123 1.2830845 0.8857595 0.29578328 -1.0616398 0.42723855 0.5827618 -1.2630776 -1.1222053 -0.026375284 0.44702676 0.07903044 0.41455546 -0.95670146 0.7129183 -1.129517 0.118708044 -0.4347031 0.14207527 0.6020834 0.67016506 0.84417903 -0.22697455 -1.2115235 -0.5840016 0.7594883 -0.23116213 0.3037038 0.07321238 -0.057655495 0.55635315 1.0619133 0.27802882 -0.6191901 -0.5124618 1.0743018 -1.7458649 -0.21573685 1.169357 -0.28927848 0.23554076 1.5233508 -1.1779721 0.6833349 -0.5043889 0.081597075 -1.0752031 -0.37640837 -0.24127613 0.15476109 -0.7755983 0.31593674 0.8175261 -0.39555508 1.3407139 -0.29328156 0.9179523 -0.015486554 -0.23175116 1.3312095 -0.16958173 -0.8044133 0.13513085 -0.012243648 0.041594185 0.11154714
mas -0.77070796 -0.6132898 -0.48913255 0.46568748 0.40093228 -0.22806895 -0.20244883 0.038546357 0.8416674 -0.4634245 -0.1561143 0.18921812 0.8268379 0.57215714 0.9043391 0.28615403 0.34171882 -0.8237466 0.32375035 -0.56379026 0.6604899 -0.065172605 -0.08709061 -0.83242 -0.51394767 -0.2392838 -0.10596677 0.30827242 0.415336 0.0036601806 1.0533106 -0.044722147 -0.4671769 -0.016735021 0.5633296 0.67625654 0.16887075 0.5990337 -0.29254818 0.24111323 0.366318 0.15861881 -0.8370897 -0.046062335 -0.18766911 -0.04166311 0.06947989 0.02209704 -0.1593732 -0.4497461 0.3190787 -0.430628 0.9223363 0.50273424 -0.11992976 0.32805628 -0.22471386 0.5818062 -0.26308018 0.04133937 -0.055572223 -0.712437 0.14088765 -0.39514464 0.28771454 0.6975956 0.95297956 0.018286226 0.7325972 1.0434476 -0.30488256 -0.5083789 0.5367098 0.518007 0.74511784 0.091406174 0.30616677 -0.18273975 -0.17124265 0.038493283 -1.7197167 -0.19499724 -0.058606647 0.63452417 -0.90525 -0.89905876 0.2852524 -0.092196554 0.2736315 -0.10805067 0.70822275 -0.015451802 0.08683286 -0.88098633 0.26741537 0.62911606 1.2826424 0.22649 0.2837095 0.35204536
por -0.5088711 -0.72795284 -0.3909584 -1.4970064 -0.9269134 -1.2676461 0.66359186 -0.109586924 -1.0731292 -0.96217227 -0.61244893 0.56051683 -1.328511 0.17789464 -0.7100026 0.9866764 0.01707983 0.82935727 -1.2810718 -0.6861378 -0.47077122 0.79222125 0.66833884 0.16265097 -0.8034252 -0.32877898 -0.41880342 -2.034035 0.58251345 -1.1423835 1.2059013 0.16951461 1.0419309 0.07336899 -0.21167116 0.013733697 0.59199333 -1.4401131 0.53978765 -0.7489692 -0.54054946 0.4930406 1.2448828 0.9995324 0.8116194 -0.62318414 0.82766783 -1.1886446 0.93948954 0.57124615 1.3275862 1.8067774 -0.30450425 -0.08878575 1.4838605 0.5907055 0.55896723 1.9908154 -0.17376736 -0.16601926 -1.1022459 -0.04923543 -0.37462652 0.89901423 1.0846436 -0.017414225 -0.17148335 -0.45349538 -1.6609532 2.361174 -0.85416085 -0.7248402 -0.4296769 -0.48809922 0.5608713 -1.106858 0.37942132 1.3575342 -0.6771133 -0.4048747 0.393588 -1.3856357 -0.67995983 0.9861408 0.32788748 0.06230637 0.14025643 0.0043060468 -0.30910218 1.0655333 0.34512624 -0.5580402 0.5708157 0.61854076 0.68873054 -1.2584417 -0.56045675 -0.42929637 0.5894587 -0.7832364
as 0.302798 1.4991993 0.051707167 -0.9423093 -0.40221828 -0.19156826 -1.2645981 0.83481574 0.807192 1.1304501 -0.45274672 1.1804651 -0.8110907 -1.026591 -1.9241543 0.16503726 1.9502282 -0.36317265 -1.5768191 -0.8709679 -1.4917696 -1.076516 -1.259496 -2.0469263 1.1140188 -1.8137158 -1.3183557 -0.6492825 -0.8915676 -0.5039556 -0.82707393 1.0842109 -1.0721557 0.18895473 -2.0695846 1.7526141 0.6949773 -1.542337 0.19975434 -0.21403316 -0.67481494 -2.0376155 0.5437239 0.7202955 -0.6381029 -2.1749349 0.45713663 -1.213903 -2.2045698 -0.12951307 1.0230309 -1.8816466 -1.567073 0.5818171 -3.3219376 -0.12110949 0.8106246 0.3072212 -1.3840549 -0.6868058 1.2676343 -0.30110824 -0.052322567 -0.5472194 0.29029155 1.4947357 1.0942495 -0.24418104 -1.897827 -0.67265946 -1.4907484 -0.60397696 -0.69494164 -0.30800223 0.26481315 -0.51549184 -1.4286479 -0.33024818 -0.5176652 0.81632346 1.3022969 -0.45033103 -0.89554846 0.5656783 0.35990754 -0.011641067 1.9190906 0.92848754 -0.82666826 1.5266935 -1.5825295 -1.3538812 0.25745222 0.21886635 1.5022771 0.010510525 -0.8150274 0.6524493 -1.0249053 1.2443005
mais -0.22367758 0.5321056 -0.8385488 0.48352805 0.38468152 0.5152397 -0.14892302 0.78927726 -0.8806012 0.45707253 -0.51960945 -0.45974568 1.253821 -0.2205749 -0.47935736 0.13223049 0.104458 -0.9861566 0.84593135 -1.754698 0.3293692 -0.43743223 0.030746086 -0.688391 -1.5185192 -1.2008839 -0.95854944 -1.1164957 1.4142815 1.5445732 0.42898715 0.7177569 0.20973948 1.1629876 -0.9585675 0.8108857 -1.1184992 0.38754478 0.16470085 -0.15910387 1.7931148 0.674371 0.032751016 -1.0905814 0.9358332 0.76582736 1.3595625 0.08636218 1.3089006 -0.8200847 0.481505 0.05734981 1.2895502 -0.27675727 -0.37204254 0.84229934 -0.1305047 0.14872722 -1.4094045 -0.24245596 -0.68466556 -1.2939626 0.40335605 -0.097812705 0.21380238 0.7005297 0.41574523 0.18871988 -0.50617814 1.4342651 0.123445265 -0.5817285 0.21259047 -0.063259184 0.30714303 -0.64432114 0.67684656 -0.34034956 0.78630525 0.011143077 -1.4964515 0.7498745 -0.6861552 0.055669427 0.84208024 -0.4614453 -0.8018483 0.53073066 1.1612726 0.37661108 0.7742372 -0.72061026 -0.4980551 -1.8104055 -0.61285794 -1.4922678 -0.56583357 0.30288833 -0.07439387 0.17380528
estava 0.54339 -1.0135059 -0.15237935 0.61021113 0.4292151 -0.14047162 -0.3648765 -0.80147123 0.5504732 -0.99899346 -0.080731705 -0.0037084199 -0.051221643 0.47531804 -0.82420915 -0.43471518 0.9222177 -0.16221893 0.13535896 1.0430268 -0.24322546 1.1411319 0.06661832 -1.3650001 -0.22969922 0.050140116 -0.53328305 -0.07651193 -0.7462026 -0.008433737 1.4357766 -0.82472 1.3663836 -0.44484267 -0.60863096 -0.45444226 -1.2991339 -0.6173961 -1.2598187 -1.1083513 -0.09136824 -0.4530302 -0.1043738 1.2106086 0.32894254 -0.62064767 -0.3340057 -0.065054 -0.21274593 -0.07810829 0.3729023 0.15894058 1.3212026 -0.3867776 0.6095367 0.6472987 0.7395989 -0.46294883 -0.03760267 -1.170618 -0.6246501 0.14319962 1.2162701 0.25204134 0.3193551 1.01562 -1.0006547 -0.82095534 -0.46017116 -1.1083584 -0.55602056 1.9387501 -0.43060818 -1.6555113 1.3633306 -0.43185055 -0.73816097 0.82535046 -0.052759618 -0.14345022 -0.8992504 1.1584768 0.9239644 0.5619859 -0.020621315 -1.0597124 0.5844529 0.7189301 1.2726865 0.9016041 0.24105069 1.1120842 -0.9294998 -0.86620134 0.07062988 1.0582389 0.051090848 0.7472611 -1.0959135 0.5720002
como -0.57333404 -0.26467857 0.17707781 0.4201147 0.12884161 -0.24566326 0.69834936 0.27567917 -0.55083585 -0.2639261 -0.3942733 -0.9634122 0.39540654 1.7246037 0.58170754 0.19065158 1.158438 -0.092063025 0.064594045 0.062368512 0.72457004 -0.43491882 0.64675313 0.17760217 0.6942452 -0.42047876 -0.5163611 0.6615322 -0.22474 0.601577 0.65009284 -0.8005405 1.0057305 -1.5186118 0.07831983 0.7389319 0.72064596 0.46093425 0.034363825 1.1273248 -0.28179184 1.3270667 -0.73396605 0.20594928 0.4807052 0.3180369 0.4790595 0.29568475 0.5919451 0.13541691 0.1771418 -0.50826144 0.009932646 0.63064593 -0.550868 0.5720851 0.35165855 -0.016037347 0.5344626 1.2237238 0.13641556 -0.8101971 -0.759016 0.017530156 -0.268594 0.19209775 -0.59997326 0.57139933 -0.62591594 2.0313785 0.2637153 -0.18278685 0.6829963 0.188862 -0.31782973 -0.52778006 -0.47239968 -0.46218702 -1.0134795 0.05533051 -0.34722954 -1.3135706 -0.5746662 -0.20663817 -1.0326471 -1.494436 0.8377112 -0.36126035 -0.017050954 -0.3774785 -0.84930205 -0.41264132 0.3667599 -0.8869266 -0.0009338237 -0.5366248 -0.040786576 0.21679203 0.9491322 0.92198545
quando -0.42928457 0.13856827 0.45548275 -0.266863 0.550737 0.62724084 -0.33973637 0.31699288 -0.8307367 -0.37879652 0.06588796 0.11274219 -0.2372249 0.7721567 0.3836479 -0.07424575 0.35037163 -0.06225206 0.25844327 -0.4030604 -0.89724946 0.3708847 1.6045858 0.62527376 -0.36473864 -0.23636693 0.51298726 -0.029929899 -0.15149523 0.27702045 0.39919809 -1.2343278 0.15443839 -0.7973258 0.81959975 -0.250832 0.43543875 0.7853136 0.71304744 0.71482074 0.10281621 -0.4940289 -0.52690893 0.11669321 1.0639764 0.23315993 -0.8925363 1.0141442 0.28853673 -0.3104748 0.02730739 0.39426106 0.16379759 0.064951114 -0.31176546 0.1621113 0.16338801 0.17916144 0.06528111 0.07748072 0.20903623 -0.41830826 0.46164355 0.079998925 -0.15011415 -0.35840452 0.24978213 -0.09009132 -0.3954409 0.72299665 0.3612889 0.4283727 -0.4676131 -0.019503616 0.11948047 -0.52552575 0.46526125 0.014763717 0.55818087 -0.20804983 -1.1813346 -0.27500686 -0.16893521 0.30369127 -0.3116354 -0.1486226 -0.009877612 1.1684232 0.011137326 -0.066599205 0.42219037 0.5482644 0.97186446 -0.7974799 0.18459956 0.6314651 0.9310107 -0.111038655 0.26472428 0.06872278
eu -0.53650445 0.6359905 1.1353091 1.3641496 0.3918072 -1.0474881 1.1987801 0.05766276 -0.20770663 0.11160726 -0.5556105 -1.5965977 1.1525071 -0.756168 0.88837564 0.12094266 0.050550424 -0.8092694 1.3420277 0.33627552 1.0996143 0.5764557 -1.1511954 0.6278477 -0.15738435 0.9311867 -0.862341 0.56485605 -0.51084286 -0.41234106 -0.20052522 0.8167436 -1.3541554 -1.112322 0.01340992 0.8678227 1.3541003 1.2707155 -0.42414483 0.53293633 -0.18436143 -0.92301005 -0.3504613 0.74455327 0.48383558 -0.057775207 -0.019971685 -0.7265816 1.1269 -0.7976474 -0.12931232 -0.9189172 0.8302326 0.5176184 -0.5862319 2.3587165 0.2980642 0.29156765 -1.3396784 1.8771696 0.4976846 -0.38072094 -1.1424315 -0.2736701 0.57992774 -0.13540779 0.3936656 -0.19761814 0.67970246 0.15425342 -0.5240567 -0.7242564 0.92780507 -0.4098735 1.3237636 0.29483464 -0.85617524 0.37489843 0.0024936472 -0.3691203 -1.4275533 0.30084014 -1.6163161 0.72435004 -0.5359324 -0.6182627 0.59815997 1.0377855 1.2170521 -1.1922245 0.77422804 0.114588514 0.42909005 -0.0469176 0.9132 0.11206173 0.54945445 -0.9508702 -0.30443317 -0.35173932
era 0.5168818 -0.9078506 1.1020138 0.8559483 -0.037570763 0.01886446 0.14811724 -0.8693942 0.57989585 -1.2373942 0.053714823 -0.55843914 1.2078025 1.315361 -1.2636067 0.33145446 0.87868553 0.1711687 0.79943067 -0.4324976 2.234143 0.4750357 0.22263436 -1.7731856 0.28305572 0.26560634 -0.53114337 0.6254153 1.0944431 1.0395159 1.4881386 0.5905942 1.3275796 -0.194907 -0.5125039 -0.25525117 -0.41490403 -0.91583675 -0.66779125 -1.262973 0.09482563 0.10597951 1.554661 0.37180674 0.03660445 0.20037962 0.04114823 0.12384366 0.025903907 -1.0625813 0.55262995 0.4958378 0.07136997 -0.445523 0.39289096 2.3190002 -0.74075454 0.53075624 0.21105617 -0.2506015 -0.5871389 0.59752977 0.36687362 0.9314619 0.7384269 0.43974665 -0.6607804 0.9391637 -0.69838154 -0.27246827 0.13594551 0.6175 -0.50140613 -1.6447418 2.3536735 -0.25892466 0.09473656 -0.4859312 0.6735156 0.22063196 -0.63916767 -0.19541197 -0.1918178 1.0604111 0.13752058 -0.32917526 -0.06726997 0.05476368 0.55385333 0.99223644 1.330626 0.8599236 -0.83120614 -0.9422871 -0.038093507 0.15021428 -0.52001446 1.0202776 0.074530534 0.46398893
à 1.9023663 -1.2181334 0.004668315 -0.73045474 0.93278474 1.9667859 -0.9193632 1.9249737 0.13974266 -0.03631855 1.462819 1.4364706 0.41356984 -0.45797366 -1.0248146 1.0459542 -1.0258337 0.94769347 -0.5417667 -0.46092266 -0.82626265 0.19873449 2.2411666 -0.72223306 0.8201308 -0.17679681 1.0485854 1.7360591 -0.5205954 1.3475692 1.4254159 -2.2893205 0.60309887 -1.3016585 1.5409151 -1.5762047 -0.7940002 -0.97983706 1.4193448 -1.0010115 1.0673019 -2.8367357 0.18653837 -1.804092 0.65662473 -0.81894153 -0.7517963 0.6317306 -1.3166752 1.0842056 -1.2173342 -0.7661984 -1.1288403 0.8682984 0.6931799 -0.76564765 0.18155323 -0.4864984 -1.6158056 0.8060341 -0.5419896 0.5212235 1.9623358 1.5892322 -0.6772643 1.2156429 0.09505934 1.2162651 -0.6456878 1.4817562 1.0046849 1.162814 0.9156374 -0.7149025 0.27275765 -1.4829355 -0.3502698 0.5746113 0.2687632 -0.0250814 1.0556852 -1.7171915 -1.9816097 0.3386073 -0.35240328 0.8883062 -0.7996948 0.25310332 -0.02533098 1.1233547 -0.36101097 -0.41986278 2.1692643 -0.41314703 -1.2702646 1.7544191 0.5829647 0.19474696 0.030198246 -1.3225801
ao -0.026530651 1.1691847 -0.8905566 0.0047104014 -0.1643144 -1.3086225 1.7109445 -0.12637512 -0.26115882 -1.2696362 0.13535579 2.084351 -1.0647972 0.16294248 0.5089144 0.9425082 0.92055935 -0.6839219 -0.41772342 -0.76414746 -0.58149934 1.4199815 0.91839564 1.5683271 1.34946 -1.0498945 1.2718698 -0.75894123 -0.0790763 1.8334014 1.7263985 -1.530564 0.22458242 -1.3773259 -0.124820985 -0.20619704 -2.6236167 -0.5264458 1.8994615 -0.32105717 -1.445391 -1.1384816 0.2166694 -0.42279428 1.1131314 -0.4891071 -1.0014147 0.20843838 -0.7425251 0.51280886 -0.9269932 0.99506694 -1.7482502 -1.5315435 1.4100907 2.303802 -0.27064493 -0.5885956 0.8650785 0.8577865 -1.0097784 -0.68495923 0.52623093 0.60226667 0.40428293 0.0056562824 0.02888823 0.74003744 -0.26052517 0.31339392 1.5756313 -0.17998542 -0.9564984 0.82139534 0.86835337 -1.309222 0.13568424 -0.03290611 0.33055967 -0.39042842 1.5423825 -0.48412538 0.5557952 0.6579079 0.9074815 0.028809065 0.70328707 0.83735794 1.1360445 1.1244467 0.64295256 -0.24156462 0.74241805 -0.43628222 -0.35103285 0.5416817 0.68223846 -1.1428578 1.5210524 -0.10646372
muito -0.094718486 -0.41714028 0.12667009 0.4662915 -0.3913298 -0.6810624 0.20035465 1.238671 1.2986479 0.1612939 0.32559773 -0.67852163 1.1298739 0.82733184 0.5558775 0.39782 0.50348234 0.12597893 -0.55319005 -0.45321986 1.1588166 0.75185263 -1.3094484 -0.60095775 -0.7923053 -1.1420187 -0.009491483 -0.9326697 0.26963738 0.83991945 -0.1562879 -0.15414743 0.44288617 -0.4007852 -1.127252 0.7288851 -1.041592 -0.039070573 0.06001619 -0.17841038 1.778003 1.452924 0.575801 -0.5033481 1.0229962 0.60330766 0.515465 -0.8590138 0.9136033 0.17325258 -1.3711078 -1.0372244 0.83794606 -0.9187316 0.76855236 0.426199 -0.25622642 0.42094973 0.545091 -1.0938765 0.72340614 -0.5819351 -0.46805614 -0.06285934 -0.52312803 1.1609344 -0.9741257 1.5754219 0.21484824 0.5958468 1.6797204 0.09208809 1.5863696 0.86111814 1.1800458 1.8365569 0.6931528 -0.3471469 -0.30594262 1.527769 -0.72524655 0.91032535 -0.2726265 -0.17650032 0.50362957 -0.41796598 0.47318706 0.7174741 1.2042226 0.07149445 0.1830374 -0.43182057 0.5384268 -1.5256779 0.29272753 0.32604554 -0.050192565 0.915279 -0.24459082 -0.051819213
foi 1.3966289 -0.82508564 0.27171758 0.039159264 -0.31452236 -0.7388257 0.39481255 -0.5147198 -1.0059823 -1.8576131 0.100254476 -0.5726871 -0.25858492 1.4553903 -0.01953783 -0.11144106 -1.3396885 1.3206149 0.6423487 0.36117235 0.4714897 0.29359084 0.29650894 0.057337638 -0.2759518 0.2855215 -0.06574789 0.09855873 -0.5206526 1.4127446 1.2107133 0.54925716 -0.15916093 -0.7709501 -0.39825037 -0.34635657 0.62796015 0.6229833 -1.1433818 -1.6039352 -0.24905142 -1.0103683 0.81580865 0.682651 0.57352495 0.91137314 -0.13388948 -0.4567752 1.0115173 -1.2321051 0.04499711 0.6527718 0.9647539 -1.2973508 0.6392259 0.8703432 0.20123155 0.009667062 -0.36907598 0.49755862 -0.4193265 0.6514741 1.5401406 0.022195172 0.272385 0.4218285 0.69059163 -0.5404502 -1.3078681 -0.57835066 0.524659 -0.080282204 -0.21461283 -1.0977885 1.3716769 0.20333748 -0.08817572 0.26211363 0.01678909 -0.12364087 -0.7116265 -0.14255351 -0.46519575 0.96098137 -1.273297 0.41348475 -0.23337185 0.21316914 0.13908806 0.22426507 1.0020267 1.0514164 0.2775276 0.27661163 -0.39548054 0.40545866 -0.30190137 -0.22586155 -0.3572684 -0.44748017
hagrid -0.1677435 1.1837353 -0.26523846 0.17731334 0.6050609 -0.08421348 0.3399171 1.1090702 0.5577623 0.24215774 1.1139473 -1.1797427 0.062150035 -0.09152269 0.7591 -0.2697455 -0.06571502 0.019341072 0.05759731 -0.1902758 -0.91402817 0.82280815 -0.035521425 0.72203577 -0.4728025 -0.9735898 0.3320263 -0.39091995 -0.5335147 -0.775568 -0.08336371 -1.0303175 -0.06261128 -0.47874513 -0.100492395 0.18101166 0.99290097 1.0036905 -0.88078296 -0.42720285 0.047630522 0.14699958 -0.41720983 -0.2137977 0.12058929 -0.2527076 0.083247446 0.21125098 1.1566951 0.50606877 -0.684796 -0.052211307 0.0734479 0.68124634 -0.30577648 0.32224706 1.1033382 -0.38676646 -0.08373298 0.015621923 0.5415771 -0.06605262 0.53646225 -0.24597341 -0.03779953 -0.18772095 -0.13941565 -0.3254562 0.14752787 0.21632138 0.56186694 -0.3634345 0.6366164 0.59519964 -0.12754394 1.0846355 0.09419752 -0.061710402 -0.20058694 -0.32039046 -0.5286635 0.36036906 -0.8952195 0.22074763 -1.6027393 -0.1169885 -0.1301802 1.0945011 0.5305127 0.120619036 0.14453611 -0.016640276 0.3869582 1.0405134 0.49528277 -0.06069968 0.69460845 0.46499062 -0.10197996 -0.79404294
está 1.7325015 -1.9975885 0.28349003 -0.42019448 -0.18388453 -1.6672983 0.6223432 0.22971135 -0.5319066 -0.6653162 -1.1297461 -1.034513 0.500967 -0.021123009 1.3702735 -0.09855967 -1.0313413 1.6711632 0.6377551 0.5012057 -1.4002843 1.5209398 -1.0886956 0.10445202 0.80158913 1.0161219 -1.3071474 -1.6573529 -1.2892207 -0.166222 0.2911703 -0.08662377 0.30154097 -2.688347 -1.0743723 0.1852529 -1.6059932 -0.40639848 -0.9707029 -2.8970475 0.41266882 -0.55051196 -0.2372882 2.6118672 1.6604838 -0.2856002 0.32456714 -1.0617526 0.92489856 0.16552572 0.096483156 -0.008805431 1.903399 -1.1961354 1.0906 0.325885 -0.25938892 0.95307183 -0.01971325 -1.4519409 -0.1595465 1.0249594 0.5908032 0.39115897 0.4165789 1.2388214 0.30550483 -1.1635349 -0.41536427 -1.2959652 -0.98501176 1.2447627 0.9647814 -2.2211967 1.3654231 0.78253263 -1.9032401 1.2150247 -2.175271 0.793997 -0.7802973 1.0137875 -0.0825357 -0.2169658 -0.2812801 0.50101155 1.7944236 0.12513034 -0.3295152 -1.5814605 -0.19042458 1.043892 0.22599684 1.6720549 -0.07430763 0.7881678 -0.12843329 0.544044 -1.7646776 -0.2370814
dos -0.2970614 0.31555402 -0.061128188 0.86583364 0.4946565 0.9517516 -1.092069 1.6151476 0.21753256 0.057377093 0.1996797 -0.78712094 -2.1317985 -0.113404036 -0.92750245 -0.3081659 -0.9163239 0.03961437 -0.041058827 -0.30407798 0.44846502 -1.8641499 0.76773953 -0.4779701 0.70746505 0.14885113 -0.07510139 -0.17290623 1.332703 1.1436769 -0.16426617 0.34762663 1.7496771 0.07227151 -0.028654289 -0.89315385 -0.5413172 -0.9786709 0.29257596 -1.2234275 -0.23397236 0.8039675 0.7820271 -0.096052326 0.4879807 -0.13632709 1.8578535 -0.44240016 0.6009394 1.3918865 1.4619741 -0.27186292 2.4256299 0.55208755 -1.7770516 0.6455601 0.052842945 2.0202346 -0.3663296 -0.32100528 0.29999956 0.11961916 -0.07004877 0.21362832 -0.7549327 -0.047030117 0.79032284 2.8119311 -1.8065974 2.0217223 0.11023495 1.0994574 1.0502393 -0.10872922 -1.6721256 0.5958939 0.49724454 2.3240519 1.2176436 -0.57213724 -0.042142406 -1.5625293 0.25868642 -1.6902684 1.2091018 0.23617603 1.3046557 -2.6821914 0.5725107 0.99158764 0.7856782 -2.2095265 -2.736272 2.45768 -1.0399969 0.42320013 -0.7668919 -1.096389 -3.2778864 2.1691067
coisa -0.3046929 2.227594 -1.6489913 -1.4304291 -1.0994469 -1.9990973 -0.6066755 -1.4638816 -2.8792636 -0.7843358 1.6879455 -2.587124 -0.20549305 2.0746644 0.8423389 -2.145702 2.3453412 -1.5218655 1.0058589 1.6770859 1.1994025 2.2833457 2.1099308 0.32818913 -1.4283944 1.9106432 -1.3756129 -1.1547765 0.86418045 -1.6667719 -0.9370697 -0.36906987 1.1136609 -0.02758325 0.84170735 2.669465 -0.4784097 0.98589563 -2.8004625 -0.5635103 -2.0312285 -0.7103616 -0.7509966 0.9492259 -1.7287551 -0.23444976 1.7079045 -1.5446309 -0.47757685 -0.5597118 -1.2491313 0.5797698 0.7228437 1.6633772 2.010254 -1.1348453 1.1716312 -2.354092 -1.3861759 -1.3293817 0.46362358 -0.51756954 -1.8375856 1.794368 0.043427423 0.82084364 0.03599242 -2.238458 -1.5722103 3.0603566 -0.34878013 -1.0145607 0.48596403 0.5219954 -0.5624872 1.923228 -1.3623053 1.216676 -1.2972639 -1.3754457 -1.6611847 0.20668271 -0.90720594 0.6967681 -0.08639296 0.76198965 0.56477106 1.5624679 1.0365853 0.0016784939 -0.4286579 0.7301648 -0.8732682 -0.97329676 0.5290337 -0.13314404 -1.9801525 0.43643153 0.6201122 -0.69661283
me 0.24693064 0.1433287 0.95490927 -0.16230173 0.6052166 -1.7503278 1.4970822 0.081896864 -1.0325559 0.19528061 0.01881064 -1.2969027 0.9054569 -0.50571406 1.2205893 -0.8499651 -0.97596353 -0.0145943025 1.8273925 0.33853975 0.80022526 0.56929076 -0.23670991 0.055414416 0.07630373 0.90438396 -0.29354042 0.16952007 -0.459343 -0.36146027 -0.1080501 0.77822083 -1.7630786 -0.8649836 0.23562579 0.51022846 0.47381175 1.5441825 0.06797479 -0.41853926 -0.45321724 -0.29372564 -0.29463395 0.19699776 -0.055341702 -0.42763588 -0.43822253 -0.5887309 1.704566 -0.2466046 0.3446484 -0.988467 1.018943 -0.2063471 0.2426712 1.4737432 -0.83797354 0.84243464 -0.7772402 0.87657887 0.2905998 -0.45195308 -0.995608 0.094944686 0.8611207 0.14676967 0.16639556 -0.9475314 0.033204876 0.31138915 -0.9861705 0.17643714 0.99830323 -1.3644794 0.8635086 -0.07177457 -1.3591624 0.12709005 -0.9234538 -0.0538498 -1.1398777 0.4352093 -1.6727583 1.0649472 -0.17765144 -0.6419285 0.25567648 1.1779041 1.3602281 -1.7407104 0.98237574 0.35428798 -0.07009601 -0.30358055 0.7318266 0.39100388 0.89550805 -1.1187528 0.51883256 -2.255389
hermione -0.33451578 1.8818493 -0.21453401 0.29277027 1.0339689 -0.50132036 -0.22204266 0.68897235 -0.73147184 -0.6839303 -0.45548055 -0.32381567 0.54887474 0.69861317 0.26527423 -0.89640385 -0.67988 -0.09912008 -0.44798616 -0.010841466 -1.3768961 -0.025163868 -0.2836723 0.24622107 -0.28422517 -1.0869964 0.14477065 -0.085169494 -1.2818227 -0.6958154 0.1643142 -1.306919 -0.78043675 -0.64100665 -0.11788451 0.496575 0.29227787 0.79535425 0.3859307 -0.29021522 -0.040175922 -0.08999762 -0.9760026 -0.6106372 0.045133635 -0.048350703 0.15524718 -0.6582596 -0.038365852 -0.19543101 0.6406651 -0.26388162 0.33476278 -0.17825198 -0.07371272 0.06263829 1.3769928 -1.1386777 -1.2236089 0.3729152 0.67380273 -0.15494792 0.7436825 -1.241992 -0.4979706 -0.5797779 0.28915763 -0.7585906 -0.8978663 -0.624436 -0.1457293 0.025387252 0.14106704 1.208613 0.7647721 0.776766 -0.055024717 0.1714509 -0.45807093 -0.19667757 0.5565282 0.35572296 -0.36362755 -0.3872878 -1.0528033 -0.4579031 -0.053320836 0.8088374 -0.20388429 1.7661185 1.3415335 0.4464893 0.9260942 1.3062509 0.3553696 0.4314437 0.11485844 -0.3510089 0.22718109 -1.0847788
sua 0.9558407 -0.8313546 -0.20484792 -1.3020271 1.6490107 -0.21605676 -0.7276136 1.4693401 -0.4889477 0.44210178 1.9678692 -0.58166367 0.56342745 -0.31915262 -0.5223049 -1.1614242 0.85171336 1.4345486 0.06704522 0.28289586 0.14283288 -1.2014117 0.31853366 -0.7663648 1.088554 0.45998636 1.2537937 1.0597212 0.5248925 -0.06386764 1.4037039 -1.268309 0.37759626 -0.22687866 2.0065205 -0.7392153 -0.19742928 -1.4009858 0.16676404 -0.2138029 0.25569013 0.34266847 -1.0825322 -1.6943344 -1.1735407 -1.0352329 -0.46627435 0.64951056 -1.1699855 0.0686874 -0.00020548147 -0.69086844 -0.7960814 1.0755495 -0.579422 0.49741235 -0.20136765 -1.1189487 -0.8138157 0.8979142 1.0332825 0.21581137 1.0635401 0.105237104 0.068651654 1.9143524 -0.028198376 0.4768626 -0.50624883 0.42624468 0.8758875 1.0500572 0.8567838 -0.18711962 0.20793395 -0.46578848 1.2065381 -0.6753604 -0.8559293 -0.888414 -0.97857684 -0.1207524 -1.0777622 0.3788561 -2.8027985 -0.18052773 -0.0491712 -2.453802 -0.7215439 -0.83424515 -0.36593714 0.18723816 -0.29788968 1.3107381 -0.8928665 -0.103891775 -0.52478445 0.9607242 -0.012707371 -0.13905871
seu -1.2484872 -0.6581018 -0.7763344 -0.60002875 -0.74401045 -1.5202109 0.59878546 0.2633768 0.28614116 -0.916093 1.6923767 -0.73994946 0.9437856 0.37221155 1.0924987 0.6322001 2.1550362 -0.6502333 1.6171541 -2.1073935 -0.1646692 0.11673182 -0.27123642 0.50422704 0.39653423 -0.5696523 0.2221728 0.14200573 0.40720928 -0.5884756 -0.4928302 0.018840224 0.71435785 -0.48063606 -0.0884085 -0.25786972 -0.08682563 -0.39776567 -0.75117385 0.42536706 0.28631464 0.60627735 -1.0722755 0.34078908 0.20770484 -0.4273697 -0.5503614 1.6651121 -0.47893545 0.19339935 0.18650374 -0.32855085 -1.3414979 0.048157036 -0.86819583 1.6671233 1.4560944 -1.2222636 1.3973279 1.7684895 -0.33069807 0.38884652 0.6270411 1.173099 -1.7399555 0.18440777 -1.1131872 0.9090557 1.5149192 -1.4782442 0.72756743 -0.32606956 1.0596423 0.7694829 -0.819708 -0.4282998 -0.03500928 -1.0800103 -0.65887594 -1.6593114 0.016875478 0.7329064 0.8186583 1.1228238 1.2994261 1.7062476 1.3225801 0.47872078 0.4304888 0.8966003 -0.4110297 2.0856736 -1.2174174 1.4471595 1.0258925 -0.2926391 -0.616679 -0.8537098 0.3424812 1.4288971
eles 0.25196537 0.1948775 -0.88776666 0.50913334 0.62486154 0.5632789 -0.803511 0.6869478 0.50560856 -0.008777491 -0.9690362 1.068088 -0.5424561 -1.0359831 -0.36666214 -0.059744824 -0.5534937 -0.9450003 0.68913627 -0.20030552 -0.07406504 0.095143676 0.17866333 -0.38183677 0.3975793 -0.5189477 0.70817435 0.3183622 -1.066862 0.5471723 -0.10910382 -0.5302613 -0.44857478 0.108985975 -0.2353718 0.4333048 -1.0047688 -0.62406456 1.0472746 -0.4530606 -0.8281846 -0.9157199 -0.42175502 -0.2515144 0.85475314 -0.8036272 1.2147682 -0.28025392 -0.19730313 -0.27638632 -0.3766718 -1.3728223 -0.5150745 0.23559007 -0.53727573 0.15134716 1.017048 -0.78800684 -0.7740878 0.6165337 0.5974371 -0.38981947 0.848563 -0.87562776 -1.1068326 0.59849083 0.41853604 0.5951222 0.80907387 1.7752013 0.29374832 -0.35953096 0.24907207 1.167517 0.085824974 -0.04849184 -1.137942 -0.08265063 0.30196366 0.017261276 1.2766393 -0.10988431 -1.1206399 0.60082996 0.30560407 -1.0184448 -0.07208415 0.36986578 0.24339524 1.2072195 0.3550608 -0.13285992 0.18451132 0.7956083 0.2719122 0.23677088 -0.29498672 -0.41857696 -0.9373557 -0.5305914
ela 0.38461205 0.43946764 -0.47600347 0.2749901 0.46549517 -0.5680345 -0.84947366 0.46536168 -0.95392984 -0.43012056 -0.10046185 -0.030865304 0.4159233 0.26732233 0.5209238 -0.37924275 -0.9988136 0.2482713 0.23000032 -0.31769258 -0.50402945 0.6040976 0.33685476 0.23555952 -0.31151837 -0.05301853 0.261801 0.9248697 -0.76243395 -0.2558413 0.4549891 -0.82151556 -0.26304764 0.22044548 -0.062523775 0.7398854 0.8002337 0.77023804 -0.7402462 -0.0028269181 -0.010247405 -0.07809209 -0.2632759 -0.40691006 -0.6471139 -0.1083067 -0.111607134 -0.46255356 -0.33781514 -0.6060248 0.20677003 -0.5849882 -0.32803568 1.191575 -0.12806265 0.06696068 0.98606855 -0.8635174 -1.1130385 0.009694922 0.68095726 -0.3920789 1.02095 -0.114021376 0.549415 0.43711436 0.42902967 -0.94705534 -0.11028374 0.51167995 0.27422732 0.02339683 0.3448904 0.3985096 0.6047876 1.235916 -0.6230113 0.52961165 -0.3796599 0.3782204 0.25175592 -0.05304529 -0.32709852 0.1509458 -0.9679411 -0.3411246 -0.21406595 0.50630003 0.17544813 1.0153079 0.59944296 0.5522372 -0.010286489 0.66676205 -0.393904 0.036699362 0.009885848 -0.119848 0.46754876 -0.98184204
bem -0.51122004 -0.31255624 -1.4326302 0.76701015 0.7903868 -0.34074545 -0.038356867 0.6724282 0.13138156 0.6778712 -0.43970177 -0.24736565 0.8601692 -0.16626802 1.326843 -0.39473325 0.284069 -0.95488304 1.2568586 -0.38736573 -0.68403155 0.67641133 -1.020185 -0.9444383 -0.39568228 -1.0752009 -1.1349075 -1.3082045 -0.93778706 -0.109885156 0.717393 0.31615683 -0.872657 -0.9729514 0.18648817 0.4988064 -1.1305707 -0.28373083 0.53920573 -1.3387618 -0.16404761 0.87584615 -1.349717 0.19942673 0.92493135 1.1795567 -0.04622843 -0.26002797 0.7135293 0.026239678 0.3265482 -1.0596701 0.8794077 0.11169369 1.0613977 -0.3358237 0.36210367 0.25751895 -0.74064577 -0.10389736 -0.23331462 0.36180416 -1.0960251 0.34734118 0.38622057 -0.089198925 -0.39380735 -0.11879576 0.53935736 0.3970101 0.36236018 -0.40896893 1.740433 0.943263 -0.6175598 0.103360035 0.3137449 -0.27544075 0.05516177 -0.8483936 -1.5696577 0.47984993 -0.71394914 -0.80928737 -0.08604597 -0.42853764 0.55410117 0.26565075 0.8757765 0.5981748 1.7486612 -0.041349247 -0.051860172 1.6679075 0.33174348 0.6540201 0.52035207 0.025331527 0.15814896 -0.3782087
das -0.61306435 1.2382964 -0.026403569 -1.5954276 -0.83555317 -0.35554042 -1.9449784 -0.054074835 -0.88629645 1.5412906 -1.4653336 0.20926434 -1.2426339 -0.9715643 -2.3359559 1.2326181 1.1147465 -0.9972299 -0.24646384 -1.0187415 0.06835772 -0.5833456 1.3190033 -1.1644212 1.8448808 0.2722769 -1.0290357 -1.0957443 -0.74972695 -0.051436603 -0.5024937 2.3429668 1.0953522 -0.23313953 -0.7298572 0.8665957 -0.9433474 -1.434914 -0.26482072 -0.93492657 -0.1535303 -1.5110095 0.25506112 0.3099337 -2.020419 -1.2998623 0.32946825 -1.9706397 -1.4181554 0.8451633 0.7633473 -0.827553 -2.203013 1.0708166 -1.0562849 -0.8222362 1.7735672 0.6336899 -1.8069806 0.02545918 0.99775326 0.0058944505 -1.674437 0.78267586 -0.4825752 1.6119196 0.95271754 -0.50758183 -1.1287311 1.0552058 -1.2248905 0.123937815 -0.825695 -0.9048904 1.1406815 -2.0867662 0.03618593 -0.42549482 0.8574675 0.7816633 0.99345 -0.83911866 -0.7082771 -0.49303555 0.8423822 0.085778296 1.1637034 1.0418563 -0.48162743 0.36742854 -1.5960298 -0.22185954 0.17097741 0.8544637 0.9104837 -0.18142006 -1.4492878 0.42887393 -0.4008504 2.0835845
cabeça -0.41241658 0.7170181 0.3749177 0.30126995 0.85250306 -0.959788 -0.92627573 0.29691407 -1.0889632 -0.8328641 -0.19435205 -0.00670827 0.58440363 1.2433898 0.68445086 -0.4985212 1.0695775 -0.0105107855 -0.37750265 -0.72429997 0.97541887 -1.285819 1.3678541 -0.6772492 -1.5734652 -1.7550225 0.367743 0.2229036 -1.0814013 -1.4674665 1.4893181 -1.7384851 0.78534305 0.8568605 0.10530915 -0.89251196 0.8178152 -0.14969106 -1.4893144 -0.50177246 0.48860982 -0.15233071 -0.6654262 0.30146724 -0.71055585 -0.7145129 0.22643971 0.7552929 -0.9763198 0.15258044 0.34739137 0.7713207 -0.23213282 -0.47930706 -0.23387001 0.9805632 -0.7789416 -0.07074047 0.7562066 -1.3409954 1.9064499 0.9773305 1.1151006 0.24144223 -0.10085317 -0.87651306 0.4436884 0.6779028 -0.2645274 -0.35766712 -1.0610625 0.38705817 -0.10021562 1.1024526 -0.03416043 2.1572297 -0.23987633 -0.5518123 -1.208955 0.23124954 1.2236612 0.8379422 0.024851637 1.6315202 -1.6949363 0.08112569 1.9615046 0.09082705 -0.27636385 0.60013217 -0.11014724 0.74515826 -0.88180244 1.7725067 1.0272241 2.2700863 0.25627187 1.0908667 0.22807303 -0.8827778
olhos -0.8153386 0.06432481 -0.23422436 0.8196115 0.071940966 -0.29927912 -0.33564124 2.409938 0.06296861 -1.0072277 -0.5388259 -0.7665114 -1.0168396 1.4921528 0.5393187 -1.5461739 0.29302546 -0.92185485 -0.30667606 0.850382 -0.15785538 -0.8181576 1.7111089 -2.1346097 -0.43004882 -1.646381 -0.1962551 -0.53707427 0.14127782 0.0072405674 0.41733265 -0.8102668 0.43651804 0.25571364 -0.09840827 -0.6240284 0.10068715 -0.03342593 -1.9045498 0.4174019 -0.027964976 1.7439717 -1.2375983 -1.0243541 1.1151328 0.98113436 0.28059325 0.98178774 -0.5203837 0.103325695 2.2580116 0.36162215 -0.535746 0.27962545 -1.3404783 -1.445013 0.18118797 -0.7033922 0.4078887 -0.78158784 0.61638623 -0.0025708426 1.9045597 -1.3868968 0.29024026 -0.1309278 0.18072568 0.93555784 -0.52651983 0.4830945 0.13957964 -1.5480996 0.16026087 0.54077476 -1.5634935 1.8545655 0.62735 -0.40942165 -0.64848906 0.27028692 0.036913764 1.1831651 -0.91281646 0.043627523 -0.6572755 -1.3834062 2.7157037 1.3103671 -1.6329012 2.169177 1.618875 0.047192127 -1.1727971 -0.3649908 1.847206 1.9398266 0.052064925 0.49389374 -0.03786124 -0.32348284
isso -0.047925916 -0.3168356 -0.9048219 0.2751455 -0.089027375 -2.358167 -0.13516048 0.48449793 -0.76252204 -0.4205242 -0.1735518 -0.18346526 1.1273438 0.8790112 1.591134 -0.47223213 -0.58137274 -0.32358804 -0.1345672 -0.23667766 -0.16087632 0.14795187 -0.7200227 0.5106728 -0.13646296 -0.27308255 -0.2991174 -0.09291286 -0.09812868 -0.6493857 0.6048097 0.9836008 -0.53192544 0.0021408123 0.7849298 1.769077 0.46841758 0.7691122 -0.972684 0.1942751 0.89912087 -0.19293137 -1.864233 0.30746263 -0.24261603 0.038367745 0.60977626 -0.6527425 0.8484473 -0.4505029 -0.21187653 -1.0630985 1.3108928 0.07148241 1.3490186 0.37733775 0.550304 0.120076485 -0.47329053 0.15959936 0.31822026 -0.7638384 -0.24125977 -1.5669309 -0.29443496 0.5890773 0.7852249 -0.4719822 -0.3508717 1.1606787 -0.34651068 -0.37154266 0.6979334 0.9467138 0.57352996 0.21445717 -1.1596729 -0.49513108 -0.7271196 0.5601309 -0.86268944 0.022077767 -1.1481323 0.9132049 -1.024651 -0.7940116 0.41780788 -0.44236213 1.0939767 -0.411861 0.3440911 0.6999768 0.76205087 0.50739485 0.6853362 -0.06305147 0.038665604 -0.71072894 0.1621523 -1.0384419
até 0.7932707 0.013999413 0.23158899 0.6157887 0.52544695 1.2847133 -0.023835715 -0.037563592 0.05489396 -0.64451444 -0.61364335 0.8437389 -0.6907007 0.6169362 -0.4099805 1.1200475 -0.62057966 -0.21920644 -0.2701274 -0.9626697 0.28689688 -0.03748785 1.316662 -0.10512444 0.06936693 0.13355751 -0.057056755 -0.9090163 -0.016989222 0.6152316 0.82536805 -0.87924105 0.95738393 -0.89656115 0.31253767 -0.30783597 -0.55610925 -0.46059477 0.9313715 -0.50904554 0.32400206 -0.3397166 0.42245752 0.5855258 1.1588237 0.01877992 -0.2892363 0.19097301 -0.15592654 -0.06889958 0.25931695 0.51355886 -0.39087376 -0.55548877 -0.15140878 0.762683 -0.014213155 0.74814117 0.041571893 0.16377199 -0.42201015 -0.20307933 0.7154497 0.64082116 -0.39344347 -0.091975726 0.44916064 0.7066045 -0.3076128 0.9239522 -0.26384997 0.3803926 -0.22626302 -1.0382521 0.27508757 -1.1282622 0.46420878 0.12435304 1.1779696 0.6873723 -0.13677388 -0.64508194 0.2221526 0.17945623 0.7215133 0.18097933 -0.066113494 0.09516976 -0.0017376777 0.5218549 0.520401 -0.51297957 0.57240754 -0.27660173 -0.5867882 0.875701 0.47415355 -0.35247305 -0.22127295 0.36234078
ter 0.18130681 -0.68928605 -0.9606328 2.042302 -3.1633677 0.06282987 0.9256103 0.19770592 -0.48322576 1.4917068 -0.6765056 -1.8762828 1.4154984 -0.7320487 -0.6849677 -0.40281835 1.1875783 -0.16440311 0.60659033 -0.06479237 2.9613006 1.350043 0.6595584 -0.61153245 -0.34160674 1.505206 0.2809959 0.70747256 0.8686489 1.2062116 -0.9957241 1.8484828 0.39090788 -0.7216576 1.1070825 1.8211752 -1.4074657 -0.30593947 -0.27117825 -0.32827473 -0.7792886 -1.1778464 -0.055499107 -0.010472678 -0.3513085 0.22166348 -1.2407471 0.20219545 0.7372166 -1.8828852 0.96645635 -0.23907344 -0.7036514 -1.173715 1.4298224 1.1385167 -0.07263128 -1.4030823 -0.11627158 0.31058627 0.00026644388 -0.5916893 -2.248047 1.3187113 -1.2517239 0.9526365 -0.13808279 1.0436443 0.9861912 1.8829377 -1.6917468 -1.7512732 0.088770986 -0.007813956 0.19044013 0.8445025 1.9777725 -2.2757885 -0.8843749 -1.3917472 -0.15399238 2.0143666 -2.2922113 0.20856999 0.092176005 -0.7166486 0.096029766 -0.28598434 0.9464727 -1.330015 1.6957376 -0.8275158 -1.6755456 0.6638296 1.3264033 0.19699176 -0.16496822 0.19145572 -0.3444356 -0.36072394
dumbledore 0.3793605 1.0076649 0.37693053 1.1663849 1.4830801 -1.0189465 0.09322994 1.6855196 0.1429862 -1.235914 0.6240796 -0.90886325 -0.18939838 0.4022385 1.6259335 -0.23153402 -0.731539 -0.1463663 0.51401156 -0.4866644 -0.21101803 0.8716306 -0.60922223 0.5217569 -0.43058363 -0.36883214 0.28853944 0.9167289 0.22499022 0.7458468 0.36108676 0.3995647 -0.42078292 -0.12866214 0.065956146 0.523951 1.4408379 1.2039378 -0.742612 -0.3104645 0.28403383 0.5399987 -1.1309248 -1.3505112 -0.31333134 0.1734988 -0.1355002 0.51349455 0.4916156 -0.36381817 0.032118324 -0.6429811 0.3748393 1.2096946 -0.5828086 1.6254897 0.34644127 -0.52619165 1.1904035 0.64718354 0.6586287 -0.028915817 0.32030106 -0.98181164 0.20108776 -0.16996941 0.3750301 -0.15535353 -0.27257204 -0.023040518 0.5182387 -0.42255569 0.20387097 0.14993255 -0.26293802 0.9364938 -0.29645425 -0.033603366 0.14111301 -0.4901282 -0.15784743 0.7193879 -0.6501768 1.1500626 -1.4267625 0.51682806 -0.40045556 0.5900093 1.3720996 -0.20091623 0.92908 -0.07910182 -0.035878144 0.6459331 1.3385054 0.9524161 0.27026513 -0.35601 0.5614714 -1.0214111
tinha -0.0023175217 -1.083384 0.1350329 0.8580891 -0.8239042 0.6235657 -0.07935702 0.0009925411 0.67378765 -0.2657502 0.27636048 -1.1696541 0.45306605 0.35995257 -1.3663518 -0.43491495 1.4873878 -0.70172215 -0.12253012 0.4560927 2.993609 1.1152421 0.3231101 -1.6638145 -0.29705378 0.89933974 -0.21346097 0.46698925 0.9777968 -0.44379565 -0.7211732 -0.085203856 1.3558514 -0.114103764 -0.114069276 -0.16941047 -0.055656727 -1.0162432 -0.87856394 -0.793347 -0.6153042 0.716367 -0.10855765 0.62016743 -0.24933329 -0.36582518 0.14720996 0.2893127 0.47541624 -0.74781734 0.68948966 0.008320633 -0.015706414 0.060391407 -0.029398808 0.7468129 0.1570647 -0.39554247 -0.8143054 -0.09551947 -0.9987014 -0.47626984 -0.6296036 0.44279572 -0.11061647 0.9985157 -0.7508888 1.0313433 -0.5112052 0.25005484 -0.13375561 0.555732 -0.4084481 -1.7230645 0.73406786 -0.13412383 0.9530245 -0.9806337 -0.76408553 -0.3788301 -0.71227604 0.608993 -0.40161738 0.6964237 -0.22216226 -0.8234332 -0.17954382 -0.23299584 0.1265057 0.32114965 0.82947165 0.253647 -0.64912814 -1.0794882 0.45163727 0.42343283 -0.79388356 0.8550734 0.48810497 0.2253236
vez -1.2641215 2.4297636 -0.36785012 -0.11288383 -0.407136 -1.6894648 -0.14641027 -0.21145315 -3.401439 -0.63577324 0.7641115 -1.2574251 0.56949085 0.54130614 0.04120534 -0.8182396 0.03621275 1.3553797 0.9716474 0.9558537 1.7561713 -2.1075761 3.1256804 -1.3223612 -1.4381874 1.6931368 -0.6235078 -1.9644455 -0.6494267 1.5142756 -0.41050467 -0.24113253 0.2548706 0.7063383 0.5400182 -2.014271 -0.67846394 1.305869 -0.3876687 -2.0782356 1.5588473 -0.25603902 1.3767322 -0.41407627 -2.1894011 -0.3246736 1.2553146 -2.0388231 1.4600161 -1.1943591 -2.1822848 -0.30171344 -0.29546073 -1.5090668 1.5362343 -1.0089393 1.0521472 -1.3521147 -1.2360479 1.2266711 1.0444231 -0.06658266 1.5540605 2.869718 -0.10891295 1.3048705 -0.31338075 -1.29836 -1.2511138 0.7927747 -0.5670189 -0.081747554 0.96258926 -0.8020177 1.4057965 0.9346051 0.4855542 0.4628733 1.4390321 -1.480309 0.5606828 1.2809582 -0.2818806 -0.4917999 -1.7822055 -0.5396715 -0.27230045 1.1959563 1.1476364 -0.056819018 -0.6492345 0.8084278 -1.5549458 -1.7983909 0.35848188 -1.0996535 -0.9274025 -0.19539158 0.6848622 -0.11292962
perguntou 0.7645084 -0.5260129 -0.18674737 -0.50968385 1.2698495 -1.7157452 0.30553645 0.6615406 -0.84419125 -0.87255776 -2.133123 -0.04554903 -0.12415151 0.03892572 1.8664447 0.10194546 -0.82028747 1.5887399 0.55269 0.57145053 -0.27910137 0.099459276 -0.7781097 -0.35887086 0.11407609 1.1419356 -0.8952865 -0.9169993 -0.78139746 0.6535103 0.8568657 -0.5239117 -0.7913013 -0.9007443 0.98747236 0.92919135 2.4078428e-05 0.6054463 -0.76701456 -0.55889285 0.7811857 -0.29716283 -0.4998407 0.7627489 1.8222569 0.10790648 -0.44609833 -0.9594297 -0.22328468 -1.2593093 1.2610503 0.39241984 1.0691348 -1.1140625 0.71015865 -1.3048067 0.38302466 0.038044892 0.1515297 0.65942895 -0.74228436 -0.09781074 0.12979056 0.4227551 0.28336206 0.21125013 1.2682037 -0.19488683 -1.0854024 -0.71919477 -2.113728 0.9587438 -0.042808227 0.16155927 -0.033222985 -0.02581429 0.15655948 1.7302402 -1.0681614 0.4610318 -1.0101357 0.693008 1.3086473 0.8358843 -1.1886903 -0.122553565 1.033928 -0.78418 -0.093603514 -0.6675304 0.13520715 0.7589183 0.48292327 -0.20638002 1.4774489 1.0120753 -0.14674841 0.07656149 -1.2221646 0.928774
sem -0.80144304 0.2747521 0.18181491 -0.6182211 0.009000473 0.16467817 0.50372475 0.07870244 -0.74939936 -0.62529397 0.7820368 0.15687066 0.3596826 0.6319843 0.308486 -1.3922389 0.87583774 -0.00251727 -0.2676325 -0.5199819 0.6704397 -0.793553 0.11822279 0.61313635 -0.66144735 -0.6396356 1.5628539 -0.016265143 0.44704315 -0.80740577 -0.42220512 -1.0014756 0.2316967 0.8248989 0.41165495 -0.32524672 -0.24064246 -0.8088471 0.44591367 0.04624392 -0.11102696 0.61455745 -0.15970989 1.1347376 -0.3043279 -0.9803893 -0.49576068 0.22154665 -0.032587264 0.254838 -0.64231944 -0.9250844 -1.1479344 -1.398262 0.2109516 1.8287473 -0.97141534 0.55059254 -0.12303898 -0.027197944 0.44876727 -0.6140259 0.15916656 0.26520965 0.39740402 0.15270391 -0.25118577 1.8278301 -0.00527493 1.6534392 0.43375283 1.1196938 -0.5802907 -0.6573502 0.15807845 0.005709036 0.8484077 -1.8633031 -0.209495 -0.010907994 0.09759065 -0.88273513 -1.2987885 1.1848203 0.8111817 -0.09764345 0.14667849 -1.3688697 -0.4481888 1.04285 0.48064327 0.4208218 -1.0994824 0.22696024 0.3245262 0.35606152 0.5730701 -1.2943552 2.3906171 -1.8482522
então -0.0216095 0.5381579 0.5500599 -0.29396555 0.49948063 -0.55832845 0.7695326 0.43548688 -0.759906 -0.18794088 -0.049793072 -0.53581244 0.21122299 0.32499826 0.4594286 -0.6409897 -0.14123172 0.4126144 0.062456377 -0.46090657 -0.33492863 0.31548104 0.37418413 0.3004754 -0.2728583 0.07264438 0.53562105 -0.19821133 -0.5595177 0.02849582 0.11864877 -0.27719146 -0.26981226 -0.5014731 0.20462139 0.30237937 0.47166994 0.41262144 -0.10116499 0.06945946 -0.15905371 0.21961884 -0.059194654 -0.15856054 0.22418693 0.34207797 -0.1632969 0.015573776 0.2050508 -0.3590118 -0.0025399758 -0.29408395 0.03617956 -0.0068797315 -0.020790234 -0.31539598 0.64313436 -0.062436502 -0.11114607 0.34688652 0.359551 0.21036425 0.18366525 0.0283443 -0.12803365 -0.10535273 0.14764163 -0.15049565 -0.65765387 0.32472056 -0.051085725 -0.42652112 0.56023073 0.71286666 -0.13704984 0.48916033 0.0029358515 0.04445607 -0.5335172 0.082043886 -0.056423936 -0.11224138 -0.64479405 -0.18522371 -0.39885074 -0.081628785 0.23570038 0.34085524 0.12179536 0.20167921 0.33094764 0.6939426 0.67733335 -0.02031576 0.7533211 0.24471894 0.22951096 -0.18679547 0.2597974 -0.81433356
vai 0.18820356 -1.1096547 0.7305301 -0.67495656 1.0480052 -0.18197584 1.4688323 -0.29114407 -0.95477635 -1.063554 -0.3675045 -1.0177585 0.09555244 0.33408993 1.4857277 -0.39369294 -1.100704 0.87573063 0.6451646 -0.07008566 1.2558941 1.0612068 -0.24483633 0.72732085 -0.34480247 0.874349 -0.6657017 -0.9783426 -0.36576632 0.05044202 -0.61441034 -0.3643215 0.12255605 -1.8682876 -0.29207858 0.36763245 0.23329479 0.018651798 0.44076425 -1.6322306 -0.20982614 -1.6556187 0.32392994 0.43940544 1.5095421 1.4524997 -0.48652336 -1.6862038 0.9862185 0.31056768 -0.53467953 -0.89334834 0.688327 -1.7691025 0.7934917 0.70010173 -1.9320177 0.6129322 -0.88819516 1.1249589 -0.8656632 0.07354435 -0.3544634 -0.51229596 -0.10604941 0.7386398 0.5017541 0.3740808 -0.59967536 0.68813676 -0.19401912 0.15553713 1.8180574 -1.8605635 1.4124846 -1.1868289 -0.4432199 0.46341565 -0.65534407 -0.8064628 -1.3740796 -0.040926 -1.1668682 1.2632327 -0.26487526 0.33451444 -1.1734138 -1.1163248 0.48997188 -1.414595 0.23314327 -0.5866261 1.1899242 -0.05193973 -0.6552318 0.021895036 1.0448152 -0.58379793 0.95765 -1.4445032
ser 0.14693971 -0.90316665 -0.5696873 1.9668565 -0.97634107 -0.56314427 -0.1145033 -0.036491115 -0.0878992 0.64846474 -0.28321332 -0.96608764 0.9572587 0.66583455 0.07253472 0.43141183 -0.05209309 0.22091748 0.78159016 -0.113500714 2.2140377 0.50924146 0.21725433 -0.98279285 -0.2516829 0.7841554 -0.419797 1.0712049 -0.18903984 1.2010527 0.21752149 1.3796571 0.45992872 -0.26932997 0.5218208 1.1008143 -0.48612598 -0.24546362 -0.94234234 -0.19330621 0.44648603 -1.5640253 0.10829135 -0.5138045 -0.24622409 0.61601305 -0.3277675 -1.0956534 0.83966196 -0.65208155 1.2382901 -0.45103997 -0.110296495 -0.19009413 0.8580653 1.7698226 -0.56112593 -0.9421845 -0.116481155 -0.22779529 0.31930715 -0.15582387 -1.0608891 0.9343119 -0.37458763 0.99757886 0.06536361 0.40520412 1.0033301 1.6940012 -1.3452394 -1.5474004 0.9716427 0.0973846 0.5532999 0.48058665 0.44861647 -1.1256332 0.21836314 -0.97829276 -1.0589578 0.8364787 -1.9988055 0.5949016 -0.15295102 -0.18653032 0.09070498 0.16600122 1.2801551 -0.55252004 1.1633288 -0.66931653 -1.2067077 0.6675608 0.4996924 0.9978082 0.47200325 1.2207936 -0.52155435 -0.79605657
lhe -0.13256119 0.5969952 0.9254641 0.081644796 -0.061351378 0.19937852 0.9516315 0.10852208 0.36050755 0.2569219 1.0436891 -1.1882883 0.7545076 -0.7120755 0.26281598 -1.0902755 0.18260212 -0.41976765 0.7000173 -0.7369636 1.3529062 0.72661436 0.2739266 -0.076447636 -0.4616728 0.3427594 0.6657512 1.3275344 0.7236869 0.113284625 -0.28558406 0.48433244 0.11978811 0.2921463 0.85906017 0.9689371 1.4355506 1.3216895 -0.38099054 0.17630908 -0.5924489 -0.53936374 -0.16243511 -0.7954614 -0.67996395 -0.8577095 -0.40683782 0.6717766 0.5886303 0.05348233 -0.077173375 -0.53537697 0.011787936 0.49643403 -0.7354043 1.203487 -0.32025012 -0.7607596 -0.17323568 0.801553 0.7108835 -0.11643685 -0.32871258 -0.43847632 -0.46654505 0.60621744 0.11746742 0.6791994 -0.30765826 0.4885758 -0.52671075 0.59230524 0.38563576 0.18919517 0.13223736 0.62056184 -0.29245847 -0.57711494 -0.5123475 -0.09721494 0.08319842 0.3686195 -0.70622736 1.0420322 -0.25985828 -0.50178635 -0.49597132 0.23264076 0.6854351 -0.029163983 0.71140873 0.62283766 -0.73064435 -0.40965807 0.6788425 0.06943209 1.03788 0.4001345 0.8769527 -1.4809722
só 0.013433122 0.40018848 0.62698084 0.39034516 0.37082675 -0.89492804 0.5168355 0.67986727 -0.43841693 -0.20797814 0.04493905 -0.8970301 0.7160671 0.5771675 0.24140888 0.110719554 -0.3866686 0.19979718 -0.13463514 -0.07117609 0.21705852 -0.009421978 0.020363797 -0.16699724 -0.01662652 0.46568617 -0.34889427 0.02337908 0.25064477 -0.4311287 0.037835184 0.5821396 0.07065264 -0.4188039 0.32198393 0.72657555 0.7260608 0.27420098 0.16519877 0.18616723 0.7503517 -0.04733413 -0.3629968 0.05063196 0.109826945 0.15851556 0.11713964 -0.9827781 1.0542277 0.16090068 -0.25299639 -0.94265026 0.31417102 0.06819379 -0.24361444 0.2666566 -0.17955923 0.26480013 -0.6697387 0.3468952 0.21911241 0.43052483 -0.93875325 0.10708974 0.20481071 0.32941607 0.73428184 0.05194427 -0.5098342 0.7254314 -0.92411923 0.069242135 0.75236946 0.04416083 0.3414437 -0.047681063 -0.22190788 -0.21551217 0.083607145 0.104012944 -0.59213316 -0.19461437 -1.0273198 0.15736637 -0.04082152 -0.55043495 0.07881416 -0.12780078 0.1192923 -0.55558735 0.05148951 0.15042752 0.43695623 -0.15772884 0.24764615 -0.48805165 0.8112917 -0.1673121 -0.034089126 -0.7794847
porta 0.105862245 2.1986077 -1.3078561 0.10387605 0.66877145 0.31143063 -0.6324515 0.34779558 -2.360821 -0.17955062 -0.27370375 -0.9503527 -0.8631982 1.1608944 -0.83955175 -1.1700786 0.8252641 0.22143686 -0.11681201 -0.23217055 -0.48699108 -0.4584691 3.2082422 -0.21220617 -0.45582518 -2.1062746 0.94841933 -1.4502937 -2.2914486 0.051862895 1.5383847 -2.5408797 1.109313 0.6800152 -0.21294561 -1.416979 -1.088955 0.1467689 -0.6971487 -0.51171815 -0.28156003 -1.012437 0.024543032 -0.0100052245 -0.3280518 0.011190606 0.37127122 -0.5676178 -0.124467455 -0.3805143 -0.33058214 0.59107935 -0.068518296 0.0286587 -0.010234197 0.17051947 0.5605746 -2.3190374 -1.180643 0.16569754 1.6888083 -0.06447519 0.89302826 -0.36753038 0.2862495 -0.32236803 1.4837383 -1.4162931 -0.8472663 0.5164393 0.9371319 0.053270105 -0.84494555 0.7915299 0.48162535 0.7809253 0.12477623 -0.11136273 -0.49916282 1.2581254 0.70407766 0.4612136 -0.57270646 0.549187 -1.5549614 -1.2261652 0.25945318 1.6523962 1.2062638 0.9196888 -0.5850851 0.5176179 -0.7535327 0.45121622 -0.70531285 1.0294448 -0.1745071 0.122719206 -0.24985333 0.55676246
lo 0.104606144 0.05214139 -0.6785359 1.0411657 -0.93398196 -0.8327618 0.824751 0.3889451 -1.28489 -0.012985383 0.82466304 -0.6047761 1.8637362 -0.16288112 0.15904023 -0.0017171706 -0.37106183 0.86069024 0.31251156 0.1840899 0.992975 -1.366906 0.0030419999 -0.14220005 0.16405354 -0.59577245 -0.31310946 0.293975 -1.5722842 0.13235451 -0.24550278 0.33155918 -0.94353503 -0.05926443 0.5906102 0.9137082 -0.3338684 0.35798717 -0.07978924 -0.016154906 0.51032144 -1.6335136 -0.14424634 -0.06024861 -1.1049085 -0.9204739 -0.3607213 -1.028848 0.47625262 -0.25110728 -0.28744537 -1.2767907 -0.18993302 -0.90492785 -0.7039938 1.1460034 -0.40266338 -0.3414835 -0.7385467 1.4113345 1.5888754 -0.23329073 0.32536778 -0.311238 0.0027033214 0.976303 -1.0593193 -0.5848147 0.4589068 0.38093087 -1.5657283 -0.6770952 0.35591736 -0.1451058 0.40382558 -0.42176056 -0.7946245 -0.68077123 -0.08958725 -0.62420475 0.02032709 0.1546113 -1.8486418 0.66489154 -0.6771899 -0.7451219 0.31822136 0.37351796 1.2804115 -0.53683555 -0.47611237 -0.45694113 -0.5829839 0.82634664 0.19215976 0.5125461 0.94500965 -1.1133423 0.12762918 -1.4440613
agora -0.3416706 0.08702272 -0.01369467 0.24048366 -0.138984 -0.256896 -0.21861081 0.12335584 -0.30477187 0.23774827 -0.36056355 -0.03988446 0.42989662 -0.1656312 -0.011779655 0.45699528 -0.60567945 0.17043076 0.046917975 -0.13078308 -0.17589678 -0.15986612 -0.15279174 0.0614861 -0.036287807 0.25469485 -0.5736394 -0.27648288 -0.82735723 0.35531393 -0.13558732 0.43128097 -0.56299156 0.21764223 0.035041332 0.24677502 -0.14839205 -0.101977006 0.22954045 -0.13516645 0.18291192 -0.50887805 0.076652065 0.55089843 0.46563154 -0.005777681 0.50418234 -0.45792407 0.34058967 -0.19276893 -0.02801753 -1.1961825 0.40320706 -0.27971473 -0.1540433 0.4451784 0.8423839 0.38713828 -1.0291495 0.26362315 0.22796333 0.029508905 -0.04236844 -0.22591959 -0.35942808 0.444289 0.092009105 0.3853918 0.14396192 0.5745993 -0.17479013 -0.042340986 0.6030839 0.2194379 0.8259847 0.38090324 -0.4329146 0.16344088 0.097581275 0.13918088 -0.37580594 0.11031379 -0.6533898 -0.13380803 0.15279683 -0.46730247 0.17066927 0.17670594 0.22370708 0.0969304 0.6293405 0.2847991 0.47327292 0.22865053 0.49230158 -0.2851877 0.36642215 -0.31139898 -0.5868869 -0.25773317
snape -0.27750796 1.1239125 0.31862387 1.3048062 0.83550143 -0.52974945 0.10346385 0.5513566 -0.19285381 -0.9586614 0.4833734 -0.56222725 0.22025725 0.55251485 0.1754619 -0.1379386 -0.52079034 -0.19931233 -0.047517344 -0.16664241 -0.001984656 -0.04160683 -0.23051286 0.38213944 0.036480922 -0.34930182 0.22474223 -0.10611188 -0.6888371 -0.18182734 0.2991172 0.20181 -0.4572572 -0.4493187 -0.10978736 0.024898587 0.6257401 0.5427102 -0.59542036 0.10361197 0.33395213 0.38762602 -0.8024675 -0.34860268 -0.73191524 -0.24659146 0.05259932 -0.14176387 0.09510946 -0.05877055 -0.009043631 -0.40174618 0.05657408 0.787701 -0.35388136 1.6564794 0.6512956 -0.6627622 -0.4238752 0.68097466 0.4253563 -0.2470576 0.39579207 -0.3447855 0.0025976375 -0.058987968 -0.21276006 -0.17413118 -0.2075344 0.3297073 0.5601557 -0.16681914 -0.09306189 -0.05790145 0.36106345 0.16317163 0.08821641 -0.22136548 0.68346375 -0.3343685 -0.28887978 -0.031020856 -0.9786119 0.031303544 -1.082798 0.18973142 0.10447768 1.3699687 1.1192803 0.31332886 0.27213165 -0.21599963 0.7308697 0.022268377 0.47940907 0.96495855 0.30390614 -0.5021136 0.6416164 -0.57588845
já 0.2846423 -0.26456133 0.18570185 0.47043452 -0.13140543 -0.5317878 -0.3422216 0.45370194 -0.8974573 -0.07907986 -0.51684487 -0.41195267 0.32361922 0.5557596 0.29390076 0.74484 0.21858738 -0.101105295 0.20716012 0.19528766 -0.4313152 0.33036736 -0.00748673 -0.15157796 -0.19409215 0.7166612 -0.9745309 0.05917176 -0.05492414 0.12564544 -0.21106738 -0.1313247 -0.118988045 -1.0464067 0.204811 0.8859273 0.2733259 0.18187135 0.4300086 0.75085723 0.75339276 -0.367866 -0.63731986 0.55036306 0.9690188 0.75289774 0.07805257 -0.46557435 0.8854015 -0.5448828 0.49075785 -0.7061114 0.29103366 0.2420851 -0.20398688 0.34598613 0.36917758 0.44074908 -0.84784853 0.034724552 -0.052481476 0.2198584 -0.89578223 0.446601 0.1029273 0.2554453 0.07351299 -0.0046863225 -0.031629212 1.0535712 0.008118603 -0.32188478 0.92800725 -0.28080353 0.49970096 -0.32864255 -0.103150934 -0.103264816 0.67343605 0.12561224 -1.2366016 -0.42635912 -0.8738377 -0.38965547 0.23926969 -0.43166867 0.7377387 0.20512426 0.02140335 -0.24445893 0.6620108 0.11060148 0.5164239 0.027774323 -0.31482574 -0.47307116 0.15219392 -0.14703095 -0.22212131 -0.15193199
parecia -0.90570897 -0.15635969 0.8032464 -0.33250895 0.13210174 0.7164284 0.46011424 -1.5560653 0.503629 -0.78417987 -0.23249114 -0.61831146 -0.23737597 0.34792134 -1.5893542 -0.88402456 0.75654745 -1.6174498 0.15328658 -0.52056575 2.3578627 1.2130823 0.15322797 -1.0940528 -0.62417835 0.17414097 -0.094529346 -0.23454443 0.27027512 -0.5689129 0.72501224 -0.7600075 1.853915 -0.4750832 -0.6953812 -0.47385213 0.25914267 -1.5837799 -0.716091 -0.80476826 -0.14161855 0.33588994 0.6724869 0.7511519 0.38284495 0.057811107 -0.2226361 0.23335902 -0.010623841 0.41341814 -0.38699925 0.12835614 0.31283042 -0.55535626 0.15809703 1.0645461 -0.16359305 -0.3281754 -1.0603772 -0.96035874 -1.7850943 1.0024046 -0.6658104 -0.97635716 -0.099112414 0.78424615 -0.045400064 0.66128606 -0.27020928 -0.15531796 0.033250295 0.50106317 0.53128576 -0.9457456 0.70985305 -0.24545218 0.33037207 0.08926543 0.8412319 -0.2063925 -0.850375 -0.66014594 -0.45344132 1.319507 0.5161799 0.01364984 -0.11681097 0.30265224 0.6175678 0.7238272 0.94027317 0.95471627 0.02201041 -0.98655814 -0.8152938 -0.3788195 -0.17421684 0.5780145 1.5425441 0.81419736
weasley -0.21510382 -0.16522942 -0.20332685 -0.13977379 0.51664644 -0.6292007 -0.27746522 -0.5093464 -1.6796188 0.115898415 -2.4153113 0.386126 -1.0671215 -0.40562817 0.9481003 0.5701882 -0.16638964 0.43894404 -1.3749259 -0.9908222 -0.91877484 1.7244769 -0.0954002 0.03994373 0.21160284 0.5298746 0.034038983 1.3729454 -1.7887292 1.8887054 0.51803315 0.6354556 -2.0148833 0.0519444 -0.23904671 -0.63081366 0.4277753 -0.61896 -0.567219 0.23788805 -0.81571454 -1.1382729 0.72863364 -0.6648358 1.8719109 1.9299779 0.56338084 1.4299877 -1.1018895 -0.8137798 0.9608338 -0.6405594 0.6843321 0.084910035 -1.2679391 -0.03979288 0.3766914 0.4229055 -0.5099927 0.52775586 0.4277774 -0.40642065 -0.3086192 0.25824174 0.9518332 0.24637572 1.9997169 1.5188309 0.2901127 -0.5817358 2.025878 0.68048275 1.9932532 1.3409911 -0.48775774 2.0782216 -0.9991212 0.69503117 0.882587 -1.232376 0.14429039 1.1041547 0.019136766 0.56027925 0.1244691 0.60931164 1.0882761 -0.13777718 -0.9027933 0.30594876 1.8339244 1.0424571 -0.34621063 -0.73306805 0.100309215 1.3769346 0.31050646 -0.90108705 0.44172716 0.6498867
pelo -0.6610324 1.1450368 -0.5191763 0.41038862 -1.1343557 -0.024372572 0.8681488 -0.42252478 -0.1532169 -0.12815984 -0.2420594 1.7976173 -0.9475498 -0.7498521 -0.19029814 0.724443 1.7114357 -0.8060594 -0.6685701 -0.9856779 -1.2177153 0.9107109 0.3851776 0.62102216 0.48174936 -1.3549615 -0.72836095 -1.5487485 -0.13588871 1.1810402 1.2887757 -0.64063555 0.72116715 -0.610195 -0.8064514 0.20278126 -1.6354543 -0.9005661 0.61494666 -0.08669783 0.17940886 -0.5419123 1.0114778 0.7534701 1.0814053 -0.68555874 -0.91825294 0.84230775 -0.011544888 -0.13414046 0.115920186 1.0688092 -2.2936265 -0.2906903 -0.84364706 1.3633958 1.0118768 0.053646732 0.69853085 0.000131761 -0.35143226 0.26280582 0.986895 0.33642185 0.15492605 -0.7074518 -0.42866778 0.74057287 -0.32778898 -0.21284682 1.0169616 0.31896898 -1.1036665 0.1602925 1.1271307 -0.48188496 0.6660112 0.5779378 0.41594508 -0.00787947 0.9242268 -0.557933 0.9091225 0.45320126 0.61743623 -0.3813452 0.43720216 1.3551412 0.33801216 0.8247659 0.7243334 0.31283644 -0.52076584 -0.033902884 -0.26644138 -1.1861376 0.020411683 -0.981239 0.32082897 1.2819328
dois -0.24888016 0.5081871 -0.017547987 0.112517424 0.1958329 -0.059461366 -0.13783613 2.1356113 -0.26811236 -0.28132084 -0.936804 -0.027850926 -1.7956971 -0.4554715 0.40265998 -0.7395071 -0.23974964 -0.72024584 -0.25533056 0.32274002 -0.060857695 0.12220672 1.3108679 -1.0107744 -0.48993146 0.23663291 0.81595427 0.2608054 -0.77295744 0.6069753 -0.011980509 -0.12303035 0.28237393 0.06488348 -1.0048808 0.113009825 0.34042397 -0.66357404 0.4526335 0.7671294 -0.31040213 -0.16396517 -0.7888066 -0.40149632 1.3071448 0.64849 0.9483103 -0.30584148 0.48737913 0.09553737 0.017462175 -0.65802175 -0.14828986 0.017400742 -0.7883948 -1.4805071 0.8832766 0.42195967 0.032826815 0.09698896 0.3470509 -0.3555623 0.6537367 -0.58064044 -0.76602817 0.7934774 0.49195048 0.5283265 0.16312756 1.6066087 -0.21788526 -0.9166142 -0.15232572 0.52143943 -0.66538584 0.22163416 -0.011371548 0.10391474 -0.22651102 0.44393355 0.26446807 0.2400466 -0.62209016 -0.51442873 1.3203616 -0.4436693 0.5199918 -0.11253586 -0.6919815 0.49625817 0.9162874 -0.5431532 -0.43889993 -0.5158879 0.9698798 0.65105224 0.06953887 -1.3777533 -0.76551634 -0.0806808
fazer 0.06723276 0.35899562 0.40077868 0.31839007 0.13632618 -0.47038057 0.2352763 0.17039208 -0.25025257 0.24110146 0.07964856 -0.7247981 1.7958221 0.40342453 0.106489144 -0.1324585 -0.3433434 0.3367259 0.5827002 -1.1264606 1.2637589 -0.32021245 0.00017535586 -0.29706374 -0.42029363 0.27274773 0.057841063 1.0664551 -0.24898188 -0.5457797 -0.49865535 1.250264 0.2933403 0.2506499 1.5640249 1.1992251 0.588617 -0.33242399 -0.06872349 -0.16370234 0.10188525 -1.3054992 -0.21146797 0.10604265 -0.50489265 -0.46499217 0.3028744 -0.24477643 0.43941247 -0.08131508 0.42009395 -0.90112096 0.18353757 -0.10168362 0.17669283 1.7811587 -0.10568135 0.10598435 -0.4961732 -0.295181 0.7662358 0.36775616 -1.1084371 0.37758687 -0.65033525 1.075574 0.21832871 0.18051605 -0.00085231825 0.77477854 -2.3232002 -0.23555201 0.4340503 0.6452749 -0.017638 0.00311916 -0.75543123 -1.0170367 -0.115890935 -0.6128847 -0.05423714 1.0821769 -1.1031601 0.65213233 -0.20640665 0.17489119 0.51787895 -0.3150486 0.7920839 -0.26422188 0.5194478 0.43055424 -0.067667425 0.59737635 0.78083634 0.3197283 0.6670936 0.9267776 0.32224664 -1.6230114
potter 0.20927785 -0.80601186 -0.82753617 0.028465284 0.24696241 -1.73382 1.0294698 0.4195967 -1.1082244 0.44785994 -0.103980266 -0.66505474 0.9204517 -0.33515972 2.3240945 0.6232828 0.578209 0.909907 0.40748712 -0.06005818 0.6702444 1.1074526 -0.71733767 0.063361816 0.33943117 0.08357128 -0.33750919 0.15646464 0.32265583 0.7498258 0.47882077 0.46433753 -1.6381619 0.0489569 -0.2666139 0.81090957 0.31714815 0.2668026 -0.82243174 -0.08151212 1.029234 -0.25452086 -0.17596169 -0.18325911 1.1033698 1.1066498 0.3531814 -0.19617967 0.017795287 -1.4098117 0.03716958 -0.47058555 0.3620202 -0.81228876 -0.29155144 0.18876922 -0.44650123 0.5237325 -0.16847755 1.546689 -0.35210595 0.19782113 -0.46684557 0.4570512 1.1430777 0.62001634 1.2362511 1.3943988 0.2848698 0.43704757 -0.3733434 -0.67772293 1.1417531 0.46048436 -1.3175133 1.5638814 -0.550638 0.2478148 -0.5559929 -1.297095 -0.9037687 -0.20357397 -1.3255118 0.8461241 0.062153142 0.83430827 1.250247 -1.2455925 -0.31628805 -0.6121367 1.1349105 0.013618995 -1.0011857 0.65897405 0.68922055 0.42255062 0.54583526 -0.6215785 -0.5980676 -0.16227628
vocês 0.41658446 0.0005416337 0.27797017 0.47642586 1.1997808 -0.78383887 -0.28727025 1.5186443 0.59948885 0.08127242 -1.4628372 -0.5035198 -1.2032866 -1.396493 0.94148463 -0.36366734 -1.8493611 -0.206835 1.1580564 0.75963914 -0.0022292149 0.7571398 -0.5247434 0.4060632 -0.061100055 0.85518694 -0.34330252 0.5540862 -0.8721192 0.199131 -1.3874661 0.27922508 -1.1670322 -1.0034746 -0.6373505 1.0247825 0.40248793 0.19298345 0.65874493 0.16350435 -0.2884026 -1.5066853 -0.4647237 0.23889256 1.6730032 -0.1725614 1.4658412 -1.2510766 2.0489607 0.60861653 -0.09039392 -1.65647 0.33257398 0.18487976 -0.41482386 0.8892425 1.0303569 0.36811164 -0.50683004 0.3613415 -0.0011790352 -1.1065472 -0.24238728 -0.88493294 -0.92653 0.722176 0.019667681 0.053116783 0.46170455 1.9488034 -0.98339564 0.054549627 0.90153587 0.10568949 0.1131057 0.3330228 -1.2889175 1.1542773 -0.39728177 -0.09001152 0.05287614 0.48588455 -1.1683922 0.19356182 0.5999903 -0.5353389 -0.5701173 0.6205953 1.1921668 -0.34017769 0.8708852 -1.4274604 0.20652862 1.0845064 1.0181832 0.00095633697 0.24108791 -0.8867221 -1.3185673 -1.346513
nada -1.2006351 0.019883359 -0.113941155 0.54031056 -0.22143601 -1.156106 -0.18424667 0.064720936 -0.075535364 -1.0463272 0.38328362 -0.036404543 0.74859315 0.7339175 1.0826108 -0.0070804614 1.1468366 -0.2376798 0.035086315 0.5577255 1.1506764 0.18265554 0.44232142 -1.2396315 -0.83074266 0.4780144 -0.6139643 0.52382827 0.6529521 -0.17892215 -0.7046689 -0.07786387 -0.1983436 0.510756 0.22997014 1.2973849 0.37610695 0.88538516 -0.4376826 0.133241 0.14694957 -1.4281278 -0.10926594 -0.66077846 -0.3728681 -0.2395158 1.0020498 -1.6263593 0.3830099 -0.8977824 -0.9139097 -0.48397338 0.4941332 0.41514364 0.21531434 1.0439148 0.036014855 -0.52199066 -0.90085334 0.11774983 0.5126073 -0.9064777 0.56762844 -0.35615882 -0.17518905 1.2192444 0.021316227 -0.0017093945 0.6294321 1.7685915 0.30224252 -0.38305858 0.7385825 0.92310745 0.73945886 1.3055454 -0.6094344 -0.040526576 0.87072945 -0.032110754 -0.24256432 0.16631521 -0.8910937 0.77227014 0.15556218 -0.86099124 0.11685421 -0.07871778 1.3368945 0.65029156 0.6692908 -0.49491176 -1.0702147 -1.1060636 -0.052381128 0.07612714 0.7076996 -0.555339 0.19968241 -0.5209012
voz -0.96573365 0.9037457 0.54139066 -0.76568884 1.3983451 -1.8222297 -0.33917964 1.1980269 -1.0726931 -0.21473168 -0.6915145 -1.8766286 -0.46741384 1.1841251 1.5411723 -1.0902259 0.61739016 0.859946 1.7319996 0.652439 0.1292112 0.5597732 0.88081294 0.1007368 -2.112699 -0.51596755 0.2898913 -0.17995 -0.9436728 -0.60496324 -0.08311442 -1.6504567 -1.692456 -0.6308133 0.18487343 -0.45489207 0.99999106 2.01972 -0.36152023 -1.2669866 -0.4872514 -0.6603309 -1.0038644 -0.6097993 -0.6012855 -0.09245776 0.64984167 -0.71519786 1.4122944 0.41863674 -0.25341657 1.2318425 1.9194676 -0.5671591 0.7422137 0.3890255 0.7810101 -0.8436791 -0.2769326 -0.8354818 0.64477444 -0.60064965 0.1270376 -0.8827391 -0.42031518 -0.65192086 -0.04951024 -0.9674118 0.33410197 0.004357274 0.045905016 -0.24607311 0.17746417 1.1601322 -0.3174375 2.3175106 -0.082762055 0.6645841 -1.031398 -0.6947142 -0.29364255 1.5552274 -0.048915327 0.44760388 -1.9867443 -0.18796697 1.0239259 2.4096043 1.4492276 -0.118058495 0.17891875 -0.12483664 0.14900488 1.4651335 1.8094289 1.4879218 -0.5549187 1.3865838 0.29967692 -0.7653478
lockhart -0.23850188 0.57170546 0.17991486 0.5388774 0.88889503 -1.071781 0.4345478 1.5111706 0.9135903 -0.063224405 0.373758 -0.2690373 -0.6193966 0.13975194 0.9371006 0.37162894 -0.062149163 0.15349528 -0.4862706 -0.26089644 -1.3474982 0.8735704 -0.34203202 0.26371267 0.35041013 -0.60000247 0.6533436 -0.01919068 -0.6567906 0.2127552 0.41347474 -0.19090046 -0.5694433 -0.23996928 -0.6284254 0.10793221 0.7398897 0.71768904 0.10206756 -0.0694866 0.14143269 0.4983439 -0.81708527 -0.64644295 -0.13803826 -0.29519904 -0.073528305 -0.21935953 0.28607768 0.5150842 -0.13283251 -0.23067601 -0.011401211 0.86942756 -0.5799043 0.28783554 1.2240725 -0.5854899 -0.023374345 0.6467731 0.79506177 -0.7370276 0.26144558 -0.713159 0.24240036 0.112368785 0.07637578 -0.5427553 -0.27275676 -0.24658468 0.7198928 -0.16904166 -0.36713544 0.3617979 -0.05729717 1.4940895 0.1111486 -0.030159973 -0.2667806 0.62538123 0.44914338 0.88605666 -0.38865352 -0.2869963 -1.2007481 -0.6339738 0.34828708 1.3700225 0.52759194 0.7188981 1.0348414 -0.061515607 0.704413 0.5412982 1.5913291 1.0521047 -0.013206911 -0.014411917 -0.43060252 -0.13098569
dizer 0.0004971328 0.16007955 0.28799403 0.7655099 0.9126954 -1.3539119 0.3054979 0.24858041 -0.9187409 -0.88309634 -0.5595568 -1.2045146 1.5293727 0.77368265 1.2700531 -0.14116183 -0.25196347 0.51060665 1.0123272 0.40217632 0.9279103 -0.7756806 -0.4137406 -0.98227936 -0.77671725 1.0239646 -0.64554626 0.35932466 -0.6846313 0.4628005 -0.17834555 0.46296695 -0.80471104 -0.15861808 1.2091308 0.747147 0.5587924 0.54111063 -0.6222152 0.9315083 0.7717514 -1.4934031 -0.36126143 0.01285867 0.9216766 0.2185229 0.5676638 -0.7423699 1.0451341 -1.5661203 0.4665931 -1.0703492 1.355772 0.5033545 -0.15994884 1.5453923 -0.41884938 -0.10155113 -0.27750975 0.6123514 0.8696134 -0.019314261 -0.47648752 0.3988153 0.36302227 0.59265375 1.1220932 -0.7620424 0.5644706 1.02662 -1.6324061 -1.2031476 1.3780077 0.08187979 -0.159648 0.5592428 -0.5779603 -0.62139034 0.6113652 -1.1166606 -1.5191424 0.9951043 -1.5025874 0.89703566 -0.97010845 -0.53285617 0.9733908 0.5532543 0.9182604 -0.58733106 1.0007887 0.36285716 -0.7345357 -0.19173674 0.7407576 0.58422333 0.842394 -7.771967e-05 -0.33403528 -1.3759558
depois 0.121070616 0.3591485 -0.0009668597 0.001175744 -0.82417685 0.36480123 0.7108733 0.4633652 -0.14693409 0.13822076 -0.5086978 -0.08925024 -0.099717 -0.277761 -1.3428258 0.1768675 -0.27154413 -0.06236609 -0.05291126 -0.7758049 -0.2845036 0.827659 1.1972151 -0.0009271532 -0.6279954 -0.15896967 0.50202674 -0.70478296 -0.51939654 0.048514534 0.8311319 0.11656905 0.15051293 -0.19700688 -0.258595 -0.038194325 -0.0144649325 -0.7389658 0.6590525 -0.20826244 0.41258904 -0.33840144 0.32296383 -0.18456472 0.5232117 0.38334462 -0.13113405 0.6432704 0.44318515 -0.16590865 0.6417366 0.26302114 -0.6523131 -0.31216815 -0.36684215 -0.1478074 0.91282105 0.14312173 -0.8866874 0.016471654 0.059682775 0.010411609 0.21133815 0.55528367 0.10726344 -0.35196194 -0.5765461 0.1929723 -0.62215185 0.72788346 -0.13685688 -0.15401423 -0.44675905 -0.2027911 0.37727335 -0.51888114 0.03908514 -0.41011843 0.6461037 0.4572961 0.09453079 -0.3187679 -0.7720426 0.1746929 0.24140958 -0.36397046 -0.004204701 0.43139842 -0.27863657 0.6437998 0.6812386 -0.15403844 0.96078414 -0.2569449 -0.08012105 -0.30480635 -0.40514156 -0.30905375 0.10710531 -0.48152265
todos 0.2905305 0.03389594 -0.1278378 0.977763 0.5377481 0.38423347 -0.18743569 1.8580518 0.20404927 -0.051585283 -0.7991264 -0.362901 -0.93783027 0.21178158 0.109795354 0.055707637 -0.87874997 -0.37068787 -0.036830883 0.72619945 -0.054680344 -0.19327596 0.75223714 -0.8638665 0.5111435 0.19249833 -0.28968817 0.09131286 -0.7517698 -0.5791863 -0.45257056 0.23627506 -0.22672808 -0.34452015 0.056715228 0.041466177 -0.055453487 -0.6641337 0.1813396 -0.034699135 -0.6122924 -0.274244 -1.0016112 0.042134233 0.74191487 0.27628326 0.47557613 0.08135812 0.6383362 0.74492127 0.9341457 -1.2504286 0.24657515 0.47757474 -0.56246966 -0.36031413 0.13324274 0.6760004 -0.57818824 -0.18179852 0.09100058 -0.21880163 -0.3394001 -1.059053 -0.5142558 0.0451702 0.1524462 0.9518287 0.40438735 1.0727772 -0.0052163363 -0.10954775 0.36578515 -0.02885113 -0.69858056 -0.31336322 -0.20517136 0.08558974 -0.035249315 0.15910335 0.20410347 0.10985552 -0.8406795 -0.43838468 0.34968236 -0.5387967 0.85937375 -0.36207592 -0.31289643 0.4731268 1.2283989 -0.8242336 -0.07273457 0.8207455 0.38007239 0.4496073 -0.0950187 -1.0506698 -0.5565013 -0.6620751
vamos -0.22876163 0.45832127 0.03546993 -1.3011551 1.0009464 -0.23928264 1.205402 0.2494926 -0.14016227 0.0740277 -0.5241882 -0.15237868 0.0017280682 -0.48030597 1.4442354 -1.314395 -0.9871024 0.5646626 0.1124447 -0.35322735 0.43224484 1.0997076 -0.40301624 0.6401381 -0.60079885 0.275811 0.014741059 -1.6825743 -0.792342 -1.12838 -0.49062476 -0.07327175 -0.6666921 -0.83412105 0.83839405 0.30470395 0.32568735 -0.40307012 0.6677926 -1.3368156 -0.74751127 -1.6457072 -0.2215786 0.36851043 1.0140778 0.18425976 -0.28151095 -0.820988 0.46967775 0.707224 -1.2112055 -1.1489862 -0.45165157 -1.2085903 1.0015241 0.33144826 -0.4035206 0.49305728 -0.8368874 0.33544266 -0.4882184 0.13730703 -0.4754711 -1.0237472 -0.12530094 0.69815606 0.9005724 -0.011653619 -0.071770936 0.7481535 -1.2269152 0.47846624 0.78168964 -0.019299746 0.5063875 -0.2729905 -1.1568509 0.6346186 -0.76635015 0.4044161 0.18738253 0.7206988 -0.13304797 0.7595811 0.5715201 0.22506307 -0.75811505 -0.19721153 0.37451655 -0.25979403 0.5692005 0.40441957 0.6053236 0.45467225 0.63066083 0.14296113 1.6473 -0.8464575 1.2124335 -1.9317932
nunca -0.37863085 -0.5264965 0.87969905 0.855365 -0.052953027 -0.6120073 0.32226235 0.58265626 -0.66148514 -0.81205565 -0.29963514 -0.99469113 0.92637426 0.8019204 0.44478324 -0.13131818 0.64272064 0.38904843 1.020861 0.47402272 1.4615486 -0.46932384 0.058603067 -0.5792558 -0.3740056 0.9168967 -0.50495005 0.8306335 0.18422118 0.88126844 -0.89827937 -0.08926663 0.105613895 -0.9859164 0.36831346 1.1105853 0.28749934 0.9764543 0.35659924 0.596683 0.5321135 -0.69323117 -0.25066748 0.36577934 0.32647794 0.6218603 -0.28624678 -0.78493154 1.4934893 -0.81088173 -0.054324657 -0.12796725 0.30388093 -0.40850514 -0.16251546 0.9038488 -0.90836334 -0.1941845 -0.43813574 0.59956616 -0.02859586 0.045430128 -0.32919824 0.15215674 -0.2911941 0.3018849 -0.38651672 1.0042163 0.10537708 1.0018641 -0.5445601 0.310197 0.6936012 -0.6215924 0.8057864 -0.21379086 0.09434467 -1.120192 1.1836529 -0.43746695 -1.0082399 -0.106687084 -1.2285532 0.1489894 0.32866448 -1.2291601 0.6439493 -0.08550131 0.57910377 -0.3263909 0.28647852 0.2350413 -0.73713356 -0.19495471 -0.034708392 -0.14867304 0.43270704 -0.21328041 0.23222162 -0.16345249
havia 0.2876243 0.3661002 0.20634754 0.5586035 -0.41350728 0.8105454 -0.08603571 -0.29200888 0.895697 -0.57088226 0.3096831 0.3923566 -0.6158279 0.24529938 -2.3684375 0.04697235 0.89668345 -0.6923012 -0.120744124 -0.92317855 1.6255583 0.2411973 0.75989467 -1.8834003 -0.2531322 -0.10677332 -0.3456406 -0.23602761 0.5254669 -0.25949836 0.5317485 0.88547593 1.8661114 0.19032973 -0.8637207 -0.07342252 -0.8187174 -1.6239707 -0.17828006 -1.4509418 -1.1988724 -0.622935 1.4236655 0.2013178 -0.5033961 -1.0925207 -0.08471954 -0.70030457 -0.041669838 -0.098393686 0.1062994 0.1626597 -0.23580158 0.2831974 0.29338467 1.2948667 0.5529829 -0.38515672 -1.123588 -0.46300638 -0.96941614 0.35264242 0.75213695 0.05239801 -0.57502335 1.0229325 -0.38171735 0.24162064 -0.6067766 0.96529007 0.1866088 0.19443358 -1.0376825 -0.4666972 1.3915458 -0.71594787 0.4915602 0.23106907 0.43473133 0.27219015 0.79172343 -0.00056636665 -0.07237496 -0.006492594 0.4113966 -0.19677767 0.2597223 0.5695875 0.78626525 1.4583648 0.497527 -0.27902448 -1.0827211 -0.32453656 -0.6125209 -0.12685962 -0.34051266 0.45349848 -0.1282203 1.2389704
quem 0.2537747 0.37290144 0.5659928 0.6515351 0.29028907 -2.4195728 -0.12954065 0.6086768 -1.9890476 -0.611937 -0.3423073 -1.3965266 0.74267745 1.6470101 1.8981991 0.10640963 0.4722548 0.36677563 0.15627003 0.12469022 -0.28373384 0.25258467 -0.5601478 0.5062034 0.6441992 0.9989694 -0.9786295 1.1859585 0.2207389 0.09467422 -0.12209498 0.24997471 -0.8640487 -1.5689179 0.24857347 1.4180881 0.9802038 0.6883929 -0.9004901 0.61968297 0.36456206 -0.4535056 -1.6513866 -0.5066666 0.08596343 0.34988725 0.25807557 -0.9002045 1.0037287 -0.3758662 0.6167914 -0.009641279 -0.25667247 1.1025577 -0.39425012 0.64454937 -0.53217435 -0.34705752 0.5706486 0.3641036 0.5572107 -0.5395508 -0.9718901 0.4922389 0.25396505 0.4412285 0.44356942 -1.3526893 -0.7940414 0.5347484 -0.009983978 -0.41817555 0.83588517 -0.7155348 0.19165693 0.557479 -0.6686212 -0.17404817 -0.25611445 -0.12161471 -0.99116725 -0.054421168 -0.48719567 0.19291109 -0.46397176 0.33940357 0.94066566 -0.01740989 1.1444552 -1.0509876 -0.05273135 -0.030799175 0.18511367 0.17700605 0.27458146 -0.49876434 -0.42458466 -0.19063571 0.5902672 -0.030185875
alguma 1.5000796 1.4593339 1.8872426 0.7681583 0.6796529 -1.3142748 0.21511234 1.5283417 -1.5762775 -0.45219433 -0.2542656 0.63835716 1.7054563 -0.12710498 0.14686622 -1.1984301 -1.0131731 -0.9782937 -0.24549372 -1.3681388 -0.43960994 1.3586797 -0.14514637 -0.44159454 -0.59058124 0.2891509 0.47543266 1.0735765 0.84485626 -1.4364384 0.6356387 0.07123421 1.675327 -0.19682139 0.651073 2.272217 -0.42191884 -0.110191144 -0.55963683 0.030467872 1.1232555 0.8615891 -1.6339785 -1.5978689 -0.7076314 -1.5223839 -1.6072099 -0.290781 -0.06636626 -1.0418124 -1.1136501 -0.5439677 -0.5282645 0.36626643 1.5191113 0.093741484 -0.7957872 0.13932773 0.7421867 -0.9677042 0.32185954 0.62358576 -0.0141214775 -1.1283165 -0.13330223 2.136857 2.0162773 -2.5739074 -0.20812108 -0.25502843 -2.1542242 -0.008943211 0.038952213 -0.30459422 1.2837046 0.20422801 0.06482193 -0.32319388 -0.54409605 1.4039414 0.61524487 1.1581804 -0.85696334 1.1872845 0.51798356 -0.14520262 1.3158389 -0.03722685 2.2084048 -1.1485543 1.3567191 1.7947633 -1.3871493 0.29407135 -0.083051406 -0.7235467 -0.31363243 -1.2716535 1.5006733 -0.6101806
aqui 0.09578271 0.48799503 -0.31452283 -0.44368148 0.040495794 -1.6285564 1.0671955 0.7224689 -0.93343645 0.1314913 -0.39533773 -0.6987131 0.820901 -0.5333264 0.9707103 -0.5194332 -0.7588863 0.49712425 0.7778062 0.116695374 -0.56570745 0.8513923 -0.92825407 0.54898655 0.09344977 0.64104855 -0.5761947 -0.7903007 -0.8942721 -0.46694455 0.05450168 0.18659045 -1.1045141 -1.1801769 0.16495144 0.84356403 -0.08723011 0.20424758 0.4550278 -0.4538727 0.298016 -0.3577198 -0.5049635 0.754686 0.46286213 -0.03662579 0.56445944 -0.8196858 1.010865 0.2094106 -0.43211293 -1.1754878 0.3803929 -0.3583297 0.61694676 -0.3533506 0.87282956 0.58372545 -0.8768389 0.5243032 -0.37608904 0.47903258 -0.7959694 -0.025129959 0.6634391 0.5199442 0.4041474 -0.92019534 -0.12517375 0.56470567 -1.2203238 -0.40017706 0.9483565 0.07161474 0.210711 0.35171387 -0.5342194 0.612656 -0.96369064 -0.1352838 -1.1721426 0.006926329 -0.7339852 -0.060664114 0.31909344 -0.39424142 0.21206565 0.008967899 0.19731948 -0.45187122 0.6738072 0.26178652 0.6747212 1.4239699 0.46908298 -0.736606 0.75127167 -1.0774975 -0.3445287 -0.8729768
seus 0.0826142 -0.39053586 -0.07610174 0.06530762 0.4984467 0.58553207 -0.39807338 2.8489447 0.9160768 -0.65931803 0.4972744 -0.24192007 -1.0936865 -0.028692296 0.37614 -1.2221324 0.059345886 -1.1873157 -0.2958124 -0.06119443 0.53782284 -0.769507 -0.1904038 -2.1775353 -0.76418954 -0.8239749 -0.30045307 0.570927 -0.6584161 1.2885581 -0.07742505 -0.21172537 -0.038387258 0.23076347 -1.7138907 0.25819942 -0.28200918 -0.24184404 0.13688956 0.11273013 -0.14722261 -0.052299522 0.02468232 -0.15105852 1.112958 0.30195004 1.2131408 0.2979723 0.55665773 0.30210423 0.16174006 -0.6570713 0.97909284 0.9088319 -2.171468 -1.0384598 0.41101316 1.4363627 0.5067525 -0.5247201 0.11381826 -0.28546855 0.28992242 -1.1933808 -0.16420084 0.9780548 -0.21658045 1.7189736 -0.31598297 0.54169524 0.77345175 0.033397224 0.0024409227 0.28772503 -1.4172182 0.6563822 0.24305667 0.2619167 -0.15737738 -0.291068 0.7057351 -0.25013804 -0.06308481 -0.3319455 0.81984156 -0.46015596 0.85825104 -1.2944217 -0.09027305 0.81557286 1.260686 -1.3194177 -2.0306876 0.44351166 0.30734962 0.5657714 -0.62598383 -1.2504277 -1.1958607 0.7378878
tão -0.519238 -0.7499774 -0.17297338 0.86937505 -0.29889426 -0.78643256 -0.302374 0.83919376 0.16048487 -0.55779415 -0.19279753 -0.8244565 1.8094313 0.62563473 -0.070096135 0.09668253 1.0816839 -0.14513071 0.015967883 -0.27717313 0.6173447 -0.31342748 -1.065338 -0.75834006 -0.6158135 -0.54239976 -0.34329054 0.57459354 1.0480646 1.1133574 0.8602253 -1.0250888 0.04042335 -0.12710264 -0.26850173 1.3871573 -0.47202146 0.64680815 -0.59001124 1.1531702 1.7041421 0.9885212 0.012604451 0.13540222 -0.08974127 0.42164108 0.09945885 0.12136048 0.62508917 -0.40980613 0.034360908 -0.4766725 0.9429603 0.46836385 -0.26861176 0.68787324 0.27121085 -0.25950864 -0.42642918 -0.51940006 -0.4708836 -0.58129346 -0.21426451 -0.41119125 0.25222385 0.54713875 -0.5912238 1.2100452 0.35752854 0.7844578 0.8985367 0.7833925 0.7761358 0.89194286 0.90765613 1.138704 1.0317253 -0.45529068 0.30660707 0.6396626 -1.455111 -0.22582392 -0.5735502 -0.020604715 -0.55150276 -1.7995028 0.19109085 0.13655965 0.39069954 0.4252196 0.7326605 0.16323976 -0.2347166 -0.5319639 -0.6354356 -0.56196266 -0.12545133 0.4305731 0.43893835 0.35939696
sr -0.5648952 1.1021634 1.5233113 -1.2238353 0.7835568 -0.17751975 0.9778117 0.16523997 -1.0261452 1.0335903 -0.47279856 -2.385344 -0.5033803 -0.31423816 0.19811629 1.247927 0.48621333 1.7652239 1.5071393 -1.0387183 -0.8151469 0.41426712 -0.031632446 1.1245437 0.8026689 1.1759044 1.6466554 0.8941429 0.47002396 0.4664203 -0.37994567 -0.3025729 -0.3890217 0.48228022 -0.011244139 -0.89487016 0.5856375 0.030100621 -0.03071257 -0.95959044 -0.39311376 -0.2956044 0.82729346 -0.9449886 0.31625733 -0.03795763 1.6192123 1.5360205 -0.9709694 -0.6032638 0.12392267 -1.7978482 3.638798 0.5249783 -1.802569 1.4360998 1.0550302 0.9139165 0.13390207 0.50017154 1.5558827 -0.82448626 0.8414285 0.2628555 -0.70434964 0.95218563 0.10094963 1.7958579 -0.16723979 -0.49932644 -0.42478046 1.2211035 1.8249935 -0.16669141 -0.7298839 3.4758148 -1.3848788 1.3806956 0.2784744 -0.97234136 -0.064388834 -0.45255503 -0.59978515 -0.2899119 1.382092 1.1834073 1.1901282 -0.48901203 1.4685072 1.7045486 0.85562557 -1.2301857 -0.7973825 0.540924 0.6936916 0.5689017 -0.20721582 -0.3710558 -0.7427732 0.58620536
